tree
version=v4
num_class=1
num_tree_per_iteration=1
label_index=0
max_feature_idx=29
objective=huber
feature_names=speed_figure form_cycle weight_delta rest_fitness class_indicator jockey_win_rate trainer_win_rate gate_bias surface_affinity agf_edge sire_win_rate sire_surface_rate surface_switch distance_delta_m equipment_changed apprentice_jockey field_pace_density s20_edge agf_reliability late_agf_drift agf_raw hp_raw weight_kg_raw kgs_raw s20_raw gate_number age distance_meters field_size surface_is_kum
feature_infos=[10.180337405468295:17.011253598534413] [0:1] [-0.12249443207126949:0.18853362734288864] [0:1] [-0.89650711513583436:1.6052631578947372] [0.015384615384615385:0.2932330827067669] [0.020618556701030927:0.5714285714285714] [-0.96153846153846145:0.5] [0.052631578947368418:0.36363636363636365] [-1:6] [0.031746031746031744:0.75] [0.024691358024691357:0.64000000000000001] [0:1] [-1400:1600] [0:1] none [0:1] [-0.92682926829268297:0.76470588235294112] none none [0:88] [5:119] [46:66] [5:446] [1:20] [1:22] [2:12] [800:2800] [3:22] [0:1]
tree_sizes=5466 5724 5710 5706 5751 5711 5750 5694 5709 5714 5742 5712 5728 5734 5723 5715 5701 5713 5709 5698 5733 5719 5812 5696 5744 5744 5722 5737 5845 5697 5822 5764 5712 5733 5701 5713 5715 5711 5703 5682 5720 5694 5720 5731 5730 5688 5698 5725 5711 5735 5731 5779 5730 5708 5722 5701 5732 5726 5719 5706 5721 5722 5785 5743 5749 5720 5722 5834 5874 5710 5739 5765 5774 5738 5731 5757 5732 5744 5744 5831 5742 5746 5755 5739 5729 5752 5747 5772 5757 5762 5765 5743 5765 5867 5833 5782 5763 5773 5769 5763 5750 5752 5750 5755 5747 5757 5749 5772 5787 5780 5767 5778 5775 5835 5776 5751 5754 5762 5732 5740 5773 5780 5784 5786 5788 5761 5769 5765 5768 5783 5845 5761 5763 5762 5752 5757 5767 5781 5758 5781 5884 5848 5790 5796 5747 5781 5779 5864 5774 5758 5794 5780 5766 5783 5776 5873 5914 5783 5762 5781 5855 5785 5802 5784 5753 5760 5763 5784 5777 5864 5777 5762 5797 5767 5798 5775 5774 5796 5771 5782 5773 5752 5778 5819 5777 5770 5753 5766 5881 5793 5867 5791 5780 5787 5779 5795 5765 5850 5769 5857 5789 5815 5762 5772 5770 5801 5783 5801 5753 5773 5762 5781 5808 5792 5787 5793 5774 5787 5774 5771 5781 5783 5786 5793 5780 5778 5773 5784 5782 5796 5795 5779 5854 5799 5792 5796 5895 5783 5792 5795 5772 5794 5784 5774 5779 5896 5887 5799 5775 5793 5782 5776 5789 5837 5784 5840 5793 5771 5785 5762 5770 5858 5772 5817 5817 5803 5800 5838 5840 5825 5803 5782 5800 5810 5852 5816 5793 5797 5835 5783 5854 5809 5829 5859 5835 5792 5806 5800 5799 5860 5808 5819 5820 5795 5832 5774 5792 5803 5796 5811 5825 5794 5801 5819 5813 5812 5814 5863 5827 5819 5810 5814 5839 5811 5830 5829 5820 5831 5867 5855 5819 5826 5836 5826 5796 5868 5834 5775 5824 5839 5878 5838 5812 5851 5821 5815 5809 5818 5826 5842 5823 5797 5812 5836 5813 5839 5832 5842 5830 5832 5819 5823 5832 5830 5825 5806 5808 5877 5823 5848 5819 5852 5833 5842 5808 5851 5817 5888 5887 5809 5866 5862 5813 5808 5834 5835 5883 5826 5826 5840 5785 5812 5809 5790 5802 5827 5791 5846 5834 5784 5804 5820 5811 5845 5819 5832 5818 5811 5831 5844 5849 5819 5857 5810 5822 5854 5813 5806 5820 5883 5823 5804 5797 5796 5851 5811 5817 5830 5820 5821 5820 5815 5830 5828 5844 5837 5811 5844 5797 5830 5825 5806 5795 5822 5818 5820 5793 5812 5796 5813 5832 5832 5790 5800 5794 5835 5852 5827 5817 5819 5802 5828 5817 5876 5817 5871 5854 5823 5828 5860 5830 5815 5841 5841 5808 5860 5858 5849 5853 5857 5813 5806 5791 5803 5808 5863 5811 5791 5799 5844 5891 5796 5796 5804 5843 5855 5844 5780 5835 5800 5813 5818 5842 5826 5889 5834 5839 5841 5856 5852

Tree=0
num_leaves=63
num_cat=0
split_feature=13 26 13 4 7 7 7 7 29 7 7 26 13 13 13 7 29 7 7 7 7 7 7 7 7 29 29 7 7 7 4 4 13 29 7 7 7 7 7 7 20 28 7 21 7 7 7 7 26 28 13 13 29 7 7 7 7 7 7 7 13 5
split_gain=7091.63 1882.21 807.608 601.662 593.378 444.785 352.463 299.917 278.44 1160.73 664.352 234.567 224.344 216.874 134.729 99.3924 124.897 701.072 444.093 79.0612 326.999 88.4821 346.077 75.3319 315.363 72.9397 69.4876 199.153 183.914 168.882 54.4048 49.2499 44.3305 42.8634 51.1774 166.624 54.9108 159.345 70.1055 153.408 34.1164 31.9972 30.5414 30.5125 29.3423 65.7712 28.9024 137.259 28.3229 27.2549 26.5114 26.4424 26.3991 223.449 128.15 173.228 53.7831 78.9325 88.3833 74.4236 25.9305 24.1066
threshold=250.00000000000003 4.5000000000000009 -449.99999999999994 0.53696363494606503 0.3115384615384616 -0.10769230769230768 0.3115384615384616 0.27307692307692316 1.0000000180025095e-35 0.1076923076923077 0.12692307692307694 3.5000000000000004 350.00000000000006 1.0000000180025095e-35 -449.99999999999994 -0.030769230769230757 1.0000000180025095e-35 0.1076923076923077 0.12692307692307694 0.038461538461538457 0.030769230769230761 -0.030769230769230757 -0.038461538461538443 0.038461538461538457 0.030769230769230761 inf 1.0000000180025095e-35 0.1076923076923077 0.1076923076923077 -0.030769230769230757 0.50443263804838179 inf 150.00000000000003 1.0000000180025095e-35 -1.0000000180025095e-35 1.0000000180025095e-35 0.042307692307692303 0.05000000000000001 0.08846153846153848 0.096153846153846173 1.5000000000000002 14.500000000000002 -0.18846153846153843 65.500000000000014 -0.10769230769230768 -0.038461538461538443 0.038461538461538457 0.030769230769230761 3.5000000000000004 10.500000000000002 150.00000000000003 450.00000000000006 1.0000000180025095e-35 0.12692307692307694 0.1076923076923077 0.038461538461538457 -0.10769230769230768 0.030769230769230761 -0.030769230769230757 -0.038461538461538443 -149.99999999999997 0.14020415905093633
decision_type=10 2 8 8 10 10 10 10 10 10 10 2 10 8 10 10 10 10 10 10 10 10 10 10 10 8 10 8 8 10 8 8 8 8 10 10 10 10 10 10 8 2 10 10 10 10 10 10 2 2 10 10 10 10 10 10 10 10 10 10 10 10
left_child=1 3 -3 6 5 41 7 11 10 19 33 32 25 14 -13 -16 18 23 43 20 21 22 -10 24 -18 30 27 -15 29 44 48 -14 52 34 -7 -36 -37 -38 50 -40 -5 -4 -43 -17 -28 -46 47 -31 -2 -27 -39 -33 53 -1 55 56 -54 58 59 -58 -35 -34
right_child=12 2 4 40 -6 8 -8 -9 9 -11 -12 13 31 26 15 16 17 -19 -20 -21 -22 -23 -24 -25 -26 49 28 -29 -30 46 -32 51 61 60 35 36 37 38 39 -41 -42 42 -44 -45 45 -47 -48 -49 -50 -51 -52 -53 54 -55 -56 -57 57 -59 -60 -61 -62 -63
leaf_value=105.81629013239981 105.86882135861752 105.82113617482059 105.8142544265432 105.82095223463286 105.81394855389325 105.82673426395878 105.81366222041849 105.8985316632351 105.89409359009076 105.81311981327769 105.8985316632351 105.81613176821908 105.89631819438037 105.8365446690796 105.8256842580147 105.82241340179034 105.8899613289603 105.8137080605198 105.8985316632351 105.89165915662923 105.81708529599402 105.89214499014332 105.81395119231851 105.88701294617759 105.81429048641856 105.83364954880402 105.82843376884671 105.8985316632351 105.8201723250841 105.88521820670442 105.85289237574955 105.85652582587505 105.83995213010658 105.84081314918055 105.8985316632351 105.82688249731773 105.8985316632351 105.8241128110563 105.8985316632351 105.82708309026653 105.81264703069922 105.82181350697246 105.85988689096379 105.83847407593541 105.88174074448004 105.82205448965622 105.88520722831012 105.81927909994118 105.88637551626816 105.86497265403771 105.85612891369172 105.89081737772517 105.8153391975611 105.8985316632351 105.81106999119896 105.87077847988702 105.87552854219862 105.8121497559757 105.8797766990224 105.81236795706667 105.85742721649686 105.82142701802067
leaf_weight=2084 293 1805 453 1633 723 493 2235 183 426 687 707 954 5021 1481 1583 1723 368 807 229 1735 204 1151 197 583 220 121 259 142 285 286 174 121 713 326 134 503 131 469 134 171 5093 127 90 357 101 85 489 109 1065 163 75 105 502 86 772 291 66 199 157 159 840 233
leaf_count=2084 293 1805 453 1633 723 493 2235 183 426 687 707 954 5021 1481 1583 1723 368 807 229 1735 204 1151 197 583 220 121 259 142 285 286 174 121 713 326 134 503 131 469 134 171 5093 127 90 357 101 85 489 109 1065 163 75 105 502 86 772 291 66 199 157 159 840 233
internal_value=105.844 105.835 105.852 105.827 105.858 105.861 105.832 105.835 105.864 105.873 105.855 105.834 105.89 105.839 105.834 105.836 105.84 105.85 105.832 105.884 105.877 105.884 105.869 105.874 105.862 105.875 105.849 105.842 105.857 105.864 105.879 105.895 105.826 105.845 105.841 105.845 105.84 105.847 105.839 105.858 105.815 105.822 105.838 105.825 105.839 105.854 105.877 105.867 105.883 105.852 105.829 105.872 105.823 105.82 105.827 105.837 105.827 105.838 105.851 105.831 105.853 105.835
internal_weight=43111 36048 11581 24467 9776 9053 17741 15506 8383 4400 3983 15323 7063 10061 6824 5870 4287 1978 2309 3713 1978 1774 623 1171 588 1816 3237 1623 1614 1329 1532 5247 5262 3276 2110 1617 1483 980 849 305 6726 670 217 2080 445 186 884 395 1358 284 544 226 4316 2170 2146 1374 1083 581 382 225 1166 946
internal_count=43111 36048 11581 24467 9776 9053 17741 15506 8383 4400 3983 15323 7063 10061 6824 5870 4287 1978 2309 3713 1978 1774 623 1171 588 1816 3237 1623 1614 1329 1532 5247 5262 3276 2110 1617 1483 980 849 305 6726 670 217 2080 445 186 884 395 1358 284 544 226 4316 2170 2146 1374 1083 581 382 225 1166 946
is_linear=0
shrinkage=1


Tree=1
num_leaves=63
num_cat=0
split_feature=27 27 27 29 29 26 27 29 20 26 13 28 28 10 5 10 20 28 28 0 13 5 4 27 29 11 13 8 2 26 26 26 11 5 26 11 6 5 10 6 13 5 8 29 28 27 9 11 5 10 10 4 26 2 2 20 26 4 23 29 20 10
split_gain=24295.2 1291.56 433.959 326.145 231.448 127.618 84.1992 65.4514 60.3148 49.2694 87.9156 46.4357 39.73 35.5521 33.9694 28.3604 24.4853 23.7955 22.788 22.0727 21.0949 19.452 18.9614 18.5508 41.0165 17.517 17.3837 17.2751 16.9878 14.4853 14.2796 13.872 13.1707 12.6477 11.934 11.8363 10.7008 10.3611 10.3266 10.238 9.13023 9.12224 8.39383 8.0437 12.0647 20.333 8.37805 7.87697 12.4938 7.79843 7.67995 7.54615 7.81049 7.50617 7.43794 7.20133 7.09815 8.67782 7.08681 7.6644 6.96111 6.87177
threshold=1550.0000000000002 1650.0000000000002 1450.0000000000002 1.0000000180025095e-35 1.0000000180025095e-35 3.5000000000000004 1350.0000000000002 1.0000000180025095e-35 4.5000000000000009 4.5000000000000009 1.0000000180025095e-35 8.5000000000000018 9.5000000000000018 0.26169734120453553 0.10814376381658705 0.18696640897186093 1.5000000000000002 9.5000000000000018 9.5000000000000018 13.737350002551686 150.00000000000003 0.097617697107203652 -0.39854881960145111 1750.0000000000002 1.0000000180025095e-35 0.16132456681049245 250.00000000000003 0.072299651567944254 0.022307570319520655 5.5000000000000009 5.5000000000000009 3.5000000000000004 0.2093259595386652 0.11096772259817766 3.5000000000000004 0.21669246646026835 0.27287157287157288 0.085637891520244466 0.26679197994987475 0.13434479584456574 350.00000000000006 0.1835800917832168 0.12310606060606062 1.0000000180025095e-35 11.500000000000002 1250.0000000000002 -0.55499999999999983 0.17862289007822152 0.11907437132156234 0.19183031703247341 0.18636679731950945 -0.23933817938501775 3.5000000000000004 1.0000000180025095e-35 0.0035119201785868957 10.500000000000002 3.5000000000000004 -0.16657229143072852 17.500000000000004 1.0000000180025095e-35 6.5000000000000009 0.21435728600057261
decision_type=2 2 2 10 10 2 2 10 8 2 10 2 2 10 8 10 8 2 2 8 10 8 10 2 8 8 8 8 8 2 2 2 8 8 2 8 10 8 10 8 8 10 10 10 2 2 10 8 10 8 10 10 2 8 8 10 2 10 8 10 10 10
left_child=2 4 6 16 5 40 43 -8 15 10 21 26 14 18 60 17 51 -9 54 -19 25 -7 53 24 30 -13 34 -10 31 56 38 -22 -11 -34 -5 42 -14 -29 -3 -36 -2 -39 -16 -1 -45 -46 -47 -28 -49 -43 -23 52 -4 -21 -12 -31 -27 -58 59 -26 -6 -20
right_child=1 23 3 11 12 9 7 8 27 32 13 20 36 -15 35 -17 -18 19 61 22 28 50 -24 -25 58 29 47 37 -30 55 -32 -33 33 -35 39 -37 -38 41 -40 -41 -42 49 -44 44 45 46 -48 48 -50 -51 -52 -53 -54 -55 -56 -57 57 -59 -60 -61 -62 -63
leaf_value=-0.044893975224908164 -0.036261754759041913 0.020151787953092214 -0.02861314066251119 -0.037877243099274573 0.032322092331643848 -0.0055589512184572726 -0.043615714352804341 -0.034529240496530389 -0.020249245734500491 0.016648438448549196 -0.022017460739290395 0.012021690458489982 0.032566227875074398 -0.037200471408226909 0.0015965987850601476 -0.036544224805676734 -0.040369391521900916 0.020661171761651834 0.030155072432188762 -0.032503909388881015 -0.027309216030182378 -0.020052562899449292 -0.026830345835968702 0.044999998807907109 0.011640051069358986 -0.026635462083462361 0.017280689277686178 -0.034858280925937325 0.026279638089099024 0.018621369842987727 0.041016261992709982 0.011112534204862782 0.02018972348421812 -0.014876467832881544 0.0021004221932445135 0.016267410923831795 0.010232049971818924 -0.042184015192363769 -0.0090589416389529782 -0.020660060136599313 -0.018818658997661601 -0.025506996916481325 -0.020987504001499881 -0.044041532504030111 -0.042610982172171713 -0.026824854158816681 -0.037398138826092088 0.0092763762176036844 -0.033408657014369965 -0.041224281380281731 -0.038711957813827857 -0.033307073937087761 -0.0065360300941392779 -0.010990804066442088 0.0075538211166858681 -0.010142469452694059 0.010311700388485072 -0.013435813462538594 0.044128329899120196 0.044999998807907109 0.016190388688787086 0.0096515073268501859
leaf_weight=6977 251 166 75 77 148 96 3009 505 121 491 37 173 712 34 96 822 1133 30 168 46 31 85 871 12347 36 69 48 904 159 68 70 97 40 72 63 71 58 2271 37 229 107 163 72 4771 1917 321 450 40 30 153 157 122 86 342 50 32 49 179 1068 33 122 54
leaf_count=6977 251 166 75 77 148 96 3009 505 121 491 37 173 712 34 96 822 1133 30 168 46 31 85 871 12347 36 69 48 904 159 68 70 97 40 72 63 71 58 2271 37 229 107 163 72 4771 1917 321 450 40 30 153 157 122 86 342 50 32 49 179 1068 33 122 54
internal_value=-0.00928584 0.037968 -0.0391008 -0.0203382 0.00777193 -0.00464974 -0.0412884 -0.0375605 -0.034635 0.00271061 -0.00650579 -0.00269602 0.0237191 0.0113279 0.0128803 -0.0288532 -0.0370834 -0.0253293 0.0166676 -0.0217249 0.00430998 -0.0246033 -0.0227349 0.0443795 0.0389463 -0.00125638 -0.0150249 -0.0388225 0.0153651 -0.00704254 0.0215427 0.00180727 0.0131192 -0.00235283 -0.0203669 -0.000848706 0.0308839 -0.0394663 0.0148277 -0.0157494 -0.0310483 -0.0410765 -0.0080823 -0.0436736 -0.0425322 -0.0398531 -0.032996 0.00168024 -0.00901721 -0.0331169 -0.032158 -0.0239277 -0.0168204 -0.0135413 -0.00502247 0.00941694 -0.0125845 -0.00833218 0.043125 0.0275948 0.025033 0.0251677
internal_weight=43111 16678 26433 2760 2921 1642 23673 9237 6228 1284 681 1344 1279 343 509 2616 1416 1794 309 1289 857 338 1259 13757 1410 570 487 3612 287 397 273 128 603 112 369 239 770 3491 203 292 358 2587 168 14436 7459 2688 771 118 70 316 242 283 161 388 87 100 297 228 1137 69 270 222
internal_count=43111 16678 26433 2760 2921 1642 23673 9237 6228 1284 681 1344 1279 343 509 2616 1416 1794 309 1289 857 338 1259 13757 1410 570 487 3612 287 397 273 128 603 112 369 239 770 3491 203 292 358 2587 168 14436 7459 2688 771 118 70 316 242 283 161 388 87 100 297 228 1137 69 270 222
is_linear=0
shrinkage=0.05


Tree=2
num_leaves=63
num_cat=0
split_feature=27 27 27 29 29 26 27 29 21 21 26 26 26 21 13 28 5 26 21 21 26 8 20 20 28 27 29 21 10 22 22 10 11 26 20 21 11 6 0 11 11 13 11 6 5 4 13 28 11 13 21 6 10 21 21 21 21 26 26 26 29 28
split_gain=24273.2 1293.46 435.028 324.535 230.631 126.994 85.1536 65.9795 61.0594 56.7673 65.2515 53.5822 48.8539 88.7075 58.1888 39.5569 33.8113 30.3808 29.2557 28.2064 26.4211 25.3107 24.6127 23.9171 21.8721 18.8701 41.5735 17.351 16.3997 16.2456 16.1836 15.6258 14.4556 14.3566 14.2928 13.2768 13.0551 12.0562 11.9915 11.7482 11.0993 12.8504 10.7269 10.6768 10.6038 10.2612 10.1623 10.0355 13.9418 11.1554 9.78657 12.5 9.58188 9.53532 9.45837 9.35117 8.82121 11.2952 8.81093 8.75505 8.13713 12.1793
threshold=1550.0000000000002 1650.0000000000002 1450.0000000000002 1.0000000180025095e-35 1.0000000180025095e-35 3.5000000000000004 1350.0000000000002 1.0000000180025095e-35 26.500000000000004 63.500000000000007 3.5000000000000004 3.5000000000000004 4.5000000000000009 47.500000000000007 1.0000000180025095e-35 9.5000000000000018 0.10814376381658705 7.5000000000000009 41.500000000000007 26.500000000000004 4.5000000000000009 0.074537037037037054 1.5000000000000002 6.5000000000000009 11.500000000000002 1750.0000000000002 1.0000000180025095e-35 86.500000000000014 0.20859555379642458 57.250000000000007 57.250000000000007 0.21129964121595923 0.18423578139205984 5.5000000000000009 3.5000000000000004 10.500000000000002 0.18024167091929724 0.087005046583850942 14.170041066483678 0.21669246646026835 0.11995717344753749 250.00000000000003 0.16210036141228804 0.27287157287157288 0.097617697107203652 0.20018639328984167 150.00000000000003 9.5000000000000018 0.14004310344827589 150.00000000000003 77.500000000000014 0.13238651625033579 0.18520836230473278 24.500000000000004 39.500000000000007 29.500000000000004 44.500000000000007 4.5000000000000009 3.5000000000000004 4.5000000000000009 1.0000000180025095e-35 11.500000000000002
decision_type=2 2 2 10 10 2 2 10 10 10 2 2 2 10 10 2 8 2 10 10 2 8 8 8 2 2 8 10 10 10 8 10 10 2 10 8 8 10 8 8 10 10 10 10 8 10 10 2 8 8 10 8 10 10 10 10 10 2 2 2 10 2
left_child=2 4 6 22 5 53 60 -8 11 10 19 34 13 14 29 16 -6 24 28 40 42 -13 54 38 50 26 33 37 -12 44 -15 -16 35 45 47 -23 -29 -14 -10 56 -5 -42 -20 55 -7 -3 -30 -9 49 -49 51 -11 -40 -2 58 -17 -18 -58 -4 -57 -1 -62
right_child=1 25 3 9 15 12 7 8 23 17 18 21 27 30 31 43 39 -19 20 -21 -22 32 -24 -25 -26 -27 -28 36 46 -31 -32 -33 -34 -35 -36 -37 -38 -39 52 -41 41 -43 -44 -45 -46 -47 -48 48 -50 -51 -52 -53 -54 -55 -56 59 57 -59 -60 -61 61 -63
leaf_value=-0.044892366582940761 -0.019356544795682877 0.020553465695969716 -0.028923442146994851 0.023980180746534976 0.02496778611024773 0.017159433166186015 -0.043596870739919212 -0.039319859710458205 -0.0080045673716813339 0.01096431713551283 0.031261832735818361 0.015803227061405779 -0.0050443088878755985 -0.0017004372896971525 0.035750109717349876 0.042962666246585735 0.0079281796652235486 0.020274677590835687 0.0051366955964892574 -0.028785056386280945 0.018244148538831405 0.015967357256694844 -0.040288610216345236 -0.040691292807945166 0.0015216999244876206 0.044999998807907109 0.043101362667473248 0.0098615990737658549 -0.0092467651616934005 -0.034137930130136426 -0.031873842376280596 0.0065257397113424364 -0.030181053926230994 0.040899072630064828 -0.04061247054148804 -0.01530847151099766 -0.01737999843290219 0.022156706389583902 -0.031511023718011517 0.016198675367246632 -0.025884028265009757 0.011911792917685076 -0.022506914751980692 0.010179125530452564 -0.015184999488551041 -0.006729511878537861 0.024957270977588802 -0.02473692723278758 -0.031054998948652313 0.0026752439673457828 -0.035253361930124093 -0.025670989882200956 -0.038443389718161254 -0.036715859358664608 -0.036765627352956763 0.022273155542496793 -0.032364575984803114 -0.00046362222305365976 -0.0072808309356765001 0.034994601657705716 -0.044033398239355474 -0.039825144445820207
leaf_weight=6977 118 159 88 41 270 45 3009 146 45 30 232 64 46 54 149 164 57 48 56 162 136 38 1133 2533 80 12347 1137 136 49 58 251 66 157 70 385 317 65 356 1342 71 46 44 94 58 58 44 39 79 259 70 183 104 793 240 94 243 55 56 101 305 4771 2688
leaf_count=6977 118 159 88 41 270 45 3009 146 45 30 232 64 46 54 149 164 57 48 56 162 136 38 1133 2533 80 12347 1137 136 49 58 251 66 157 70 385 317 65 356 1342 71 46 44 94 58 58 44 39 79 259 70 183 104 793 240 94 243 55 56 101 305 4771 2688
internal_value=-0.00927449 0.037958 -0.039076 -0.0202903 0.00773961 -0.00466011 -0.0412662 -0.0375173 -0.03458 -0.0026917 0.004538 -0.025848 0.00268223 -0.00649523 0.00975774 0.0236586 0.0128434 -0.0172973 0.0139046 -0.0148346 0.00228395 -0.0138421 -0.0369941 -0.0373869 -0.02184 0.0443742 0.0388944 0.0130468 0.0242906 -0.0129724 -0.0265317 0.0267789 -0.0175478 0.021373 -0.0332127 -0.0119606 0.00105213 0.0190442 -0.0335475 -0.000853566 0.00241711 -0.00740607 -0.0121866 0.0308078 -0.00105394 0.0146399 0.00591184 -0.0280702 -0.0240446 -0.0118587 -0.0277357 -0.0174691 -0.0340859 -0.0309941 -0.0238042 0.0324882 -0.00806017 -0.0162704 -0.0173578 0.0293535 -0.043665 -0.0425169
internal_weight=43111 16678 26433 2760 2921 1642 23673 9237 6228 1344 899 1515 1284 681 376 1279 509 445 606 293 286 576 1416 4713 397 13757 1410 603 320 161 305 215 512 273 939 355 201 402 2180 239 131 90 150 770 103 203 88 554 408 149 317 134 2135 358 283 712 168 111 189 548 14436 7459
internal_count=43111 16678 26433 2760 2921 1642 23673 9237 6228 1344 899 1515 1284 681 376 1279 509 445 606 293 286 576 1416 4713 397 13757 1410 603 320 161 305 215 512 273 939 355 201 402 2180 239 131 90 150 770 103 203 88 554 408 149 317 134 2135 358 283 712 168 111 189 548 14436 7459
is_linear=0
shrinkage=0.05


Tree=3
num_leaves=63
num_cat=0
split_feature=27 27 27 29 29 26 27 29 20 21 26 26 21 13 28 5 21 26 21 21 10 26 20 26 21 8 28 27 29 21 10 22 22 21 10 26 16 6 21 26 22 6 5 26 26 13 10 28 6 21 6 21 13 21 21 5 28 26 26 20 29 28
split_gain=24251.2 1295.15 436.112 323.066 229.794 126.292 86.0805 66.4676 61.1019 55.9489 64.7501 48.4159 88.3309 58.1154 39.4375 33.661 31.5625 29.8572 29.1837 28.0071 27.4199 26.0321 24.6578 22.9828 22.5471 26.4904 21.5559 19.2274 42.0343 17.1966 16.2512 16.2355 16.1125 15.9341 15.5846 14.4119 12.7407 11.95 11.4104 17.2107 12.3934 10.6593 10.5492 10.4896 10.3341 10.0362 9.99651 9.98677 9.76441 9.59122 12.3703 9.57566 9.45712 9.45465 9.37345 9.277 9.23356 8.8161 8.72018 8.36838 8.23597 12.303
threshold=1550.0000000000002 1650.0000000000002 1450.0000000000002 1.0000000180025095e-35 1.0000000180025095e-35 3.5000000000000004 1350.0000000000002 1.0000000180025095e-35 4.5000000000000009 63.500000000000007 3.5000000000000004 4.5000000000000009 47.500000000000007 1.0000000180025095e-35 9.5000000000000018 0.10814376381658705 38.500000000000007 7.5000000000000009 41.500000000000007 26.500000000000004 0.18696640897186093 4.5000000000000009 1.5000000000000002 3.5000000000000004 27.500000000000004 0.072299651567944254 11.500000000000002 1750.0000000000002 1.0000000180025095e-35 86.500000000000014 0.20859555379642458 57.250000000000007 57.250000000000007 10.500000000000002 0.21129964121595923 5.5000000000000009 0.21825396825396828 0.087005046583850942 49.500000000000007 4.5000000000000009 59.750000000000007 0.27287157287157288 0.097617697107203652 3.5000000000000004 3.5000000000000004 150.00000000000003 0.26679197994987475 13.500000000000002 0.12097769812823578 77.500000000000014 0.13238651625033579 24.500000000000004 -1.0000000180025095e-35 29.500000000000004 39.500000000000007 0.085637891520244466 9.5000000000000018 3.5000000000000004 4.5000000000000009 7.5000000000000009 1.0000000180025095e-35 11.500000000000002
decision_type=2 2 2 10 10 2 2 10 8 10 2 2 10 10 2 8 10 2 10 10 10 2 8 2 8 8 2 2 8 10 10 10 8 10 10 2 8 10 10 2 8 10 8 2 2 10 10 2 8 10 8 10 8 10 10 8 2 2 2 10 10 2
left_child=2 4 6 22 5 51 60 -8 16 10 19 12 13 31 15 -6 20 26 30 48 23 52 54 56 25 -10 49 28 35 37 -12 42 -14 -25 -15 46 -35 -13 44 -40 -41 53 -7 -27 -17 -32 -3 -31 -5 50 -11 -2 -20 -16 57 -26 -9 -4 -55 -50 -1 -62
right_child=1 27 3 9 14 11 7 8 24 17 18 29 32 34 41 38 -18 -19 21 -21 -22 -23 -24 33 55 43 -28 -29 -30 47 45 -33 -34 36 -36 -37 -38 -39 39 40 -42 -43 -44 -45 -46 -47 -48 -49 59 -51 -52 -53 -54 58 -56 -57 -58 -59 -60 -61 61 -63
leaf_value=-0.04489075799878442 -0.019266324907036152 0.019710933921033943 -0.028857707045972347 0.020635995990101328 0.024898431145379114 0.017102235000994472 -0.04357690874656775 -0.037445457696174245 0.01477877177499436 0.010909495490292707 0.03113737045265413 -0.0050388259570235796 -0.0016988628440433079 0.035706660971545533 0.042949567871486266 -0.00303214867062007 -0.035257068633525505 0.020063483073560442 -0.032277639933107866 -0.028705097905095713 -0.034973979510384612 0.018060492513263051 -0.040205594963769763 0.0015538440363362749 -0.035334345551344973 -0.041505572827433987 0.0015055318386293949 0.044999998807907109 0.043067079501696713 -0.00417441837489605 -0.0091618458483824321 -0.034137930130136426 -0.031805860788461225 0.013652765378355981 0.0065207959576086567 0.040782218085868016 -0.02011660003459748 0.022042065243082373 -0.028332071084139956 0.029456296111598158 -0.011709111492808273 0.010126474936460628 -0.01515881845663334 -0.019330896669537717 0.029501872282961139 0.024829285018719161 -0.0090291013689459982 0.024891724621152713 0.0042452829064063306 -0.03498187687227635 -0.025535229772615894 -0.036662315391198116 -0.0043162645461658636 0.022199074968450357 -0.036609177870002195 -0.04135902662050088 -0.02314697179411139 -0.0072087434941146642 0.034895164908938583 -0.02845952301135948 -0.044025091793262416 -0.039795512642428678
leaf_weight=6977 118 166 88 47 270 45 3009 161 37 30 232 46 54 149 164 52 1080 48 42 162 421 136 1133 141 858 113 80 12347 1137 165 49 58 251 30 66 70 405 356 67 33 41 58 58 101 46 39 37 36 53 183 104 240 108 243 94 2503 378 101 305 31 4771 2688
leaf_count=6977 118 166 88 47 270 45 3009 161 37 30 232 46 54 149 164 52 1080 48 42 162 421 136 1133 141 858 113 80 12347 1137 165 49 58 251 30 66 70 405 356 67 33 41 58 58 101 46 39 37 36 53 183 104 240 108 243 94 2503 378 101 305 31 4771 2688
internal_value=-0.00926319 0.0379479 -0.0390512 -0.0202421 0.00770981 -0.00466737 -0.0412441 -0.0374749 -0.0345268 -0.00268338 0.00449401 0.00265464 -0.00648158 0.00973685 0.0235998 0.012801 -0.0287074 -0.0171833 0.0138246 -0.014804 -0.0241021 0.00221822 -0.036908 -0.0199971 -0.0387415 -0.0242858 -0.0216867 0.0443683 0.0388369 0.0129727 0.0241978 -0.0129789 -0.0264754 -0.013053 0.0267473 0.0212187 -0.0177877 0.0189433 -0.000865482 -0.00997351 0.00664844 0.0307383 -0.00106418 -0.03104 0.0122389 0.00590241 0.0144726 0.00103146 0.00238662 -0.0275396 -0.017376 -0.0309284 -0.0121454 0.0324173 -0.0237061 -0.039821 -0.0274179 -0.0172887 0.0292653 -0.00782435 -0.0436559 -0.0425009
internal_weight=43111 16678 26433 2760 2921 1642 23673 9237 6228 1344 899 1284 681 376 1279 509 2616 445 606 293 1536 286 1416 1115 3612 251 397 13757 1410 603 320 161 305 576 215 273 435 402 239 141 74 770 103 214 98 88 203 201 131 317 134 358 150 712 283 3361 539 189 548 84 14436 7459
internal_count=43111 16678 26433 2760 2921 1642 23673 9237 6228 1344 899 1284 681 376 1279 509 2616 445 606 293 1536 286 1416 1115 3612 251 397 13757 1410 603 320 161 305 576 215 273 435 402 239 141 74 770 103 214 98 88 203 201 131 317 134 358 150 712 283 3361 539 189 548 84 14436 7459
is_linear=0
shrinkage=0.05


Tree=4
num_leaves=63
num_cat=0
split_feature=27 27 27 29 29 27 29 20 28 12 28 5 10 20 28 0 28 13 22 27 29 28 6 4 11 13 11 8 2 2 28 11 4 5 6 10 6 5 10 11 29 28 27 8 9 10 28 11 5 29 23 10 2 2 2 4 20 22 11 10 6 22
split_gain=24228.6 1296.66 437.256 321.694 229.022 87.0649 66.9598 61.5018 45.7215 42.2406 39.2435 33.4316 28.1931 24.7015 24.0296 21.8018 21.7461 20.7778 23.9532 19.6158 42.528 18.9536 19.9007 18.6819 17.8069 17.1336 17.1201 17.0772 14.0926 28.0877 13.5382 11.6322 10.794 10.7109 10.639 9.65596 9.63393 9.19107 9.03821 8.3579 8.33779 12.433 20.771 8.32986 8.29945 7.93722 7.91969 7.802 12.2851 7.70186 9.89489 7.69221 7.57862 13.5256 7.52839 7.27879 6.99014 6.942 6.57863 6.36224 6.29122 5.94186
threshold=1550.0000000000002 1650.0000000000002 1450.0000000000002 1.0000000180025095e-35 1.0000000180025095e-35 1350.0000000000002 1.0000000180025095e-35 4.5000000000000009 8.5000000000000018 1.0000000180025095e-35 9.5000000000000018 0.10814376381658705 0.18696640897186093 1.5000000000000002 9.5000000000000018 13.737350002551686 15.500000000000002 150.00000000000003 57.250000000000007 1750.0000000000002 1.0000000180025095e-35 15.500000000000002 0.27508389261744975 -0.39854881960145111 0.21436154079466183 250.00000000000003 0.16132456681049245 0.072299651567944254 0.003259122356056928 -0.011819352006146663 8.5000000000000018 0.21669246646026835 0.20018639328984167 0.085637891520244466 0.27287157287157288 0.23658314132104458 0.13434479584456574 0.1835800917832168 0.080145985401459868 0.23538406188163341 1.0000000180025095e-35 11.500000000000002 1250.0000000000002 0.12310606060606062 -0.55499999999999983 0.19183031703247341 11.500000000000002 0.17862289007822152 0.11907437132156234 1.0000000180025095e-35 17.500000000000004 0.25017780938833573 -1.0000000180025095e-35 -0.005885817224416264 1.0000000180025095e-35 -0.23933817938501775 6.5000000000000009 59.250000000000007 0.13800317414514504 0.10265191429574992 0.15874652266404846 58.250000000000007
decision_type=2 2 2 10 10 2 10 8 2 10 2 8 10 8 2 8 2 10 10 2 8 2 8 10 10 8 8 8 8 10 2 8 10 8 10 10 8 10 10 8 10 2 2 10 10 8 2 8 10 10 8 8 10 10 8 10 10 10 10 8 10 8
left_child=2 4 5 13 9 40 -7 12 25 21 11 56 14 55 -8 -16 24 26 -19 20 32 22 28 54 30 36 -10 60 29 -2 -11 43 46 -29 -12 58 -5 -35 -30 -40 -1 -42 -43 -13 -44 -39 51 -27 -49 50 -22 -3 53 -31 -17 -4 -6 -20 -32 -25 -9 -45
right_child=1 19 3 8 10 6 7 27 17 16 34 31 -14 -15 15 23 -18 18 57 -21 49 -23 -24 59 -26 47 -28 33 38 52 35 -33 -34 37 -36 -37 -38 45 39 -41 41 42 44 61 -46 -47 -48 48 -50 -51 -52 -53 -54 -55 -56 -57 -58 -59 -60 -61 -62 -63
leaf_value=-0.044889149472162278 0.0037982884902915321 0.024565178355468172 -0.016628190253786049 -0.0049733747245260971 0.032133591716882549 -0.043555002902495477 -0.034364568390468558 -0.026779420477348371 0.011884094862471944 -0.0018366602477100161 0.032343690035674395 0.0016243383133163055 -0.036301282534054014 -0.040122586396824499 0.02062774393707514 -0.032366250293410344 -0.029493806532451084 0.026390398898058467 -0.017337564956776949 0.044999998807907109 0.010549718036397988 -0.029186929922018736 -0.022651983691113337 -0.016883883674458509 -0.018925111463596656 0.017206654348410667 -0.0069628885843948246 -0.03465482525226652 0.02419501300397757 -0.030584935442759444 0.017172973058149806 0.016121179098919244 0.0003105921451659764 -0.042088840886022043 0.01007409663549785 0.00096055898242271862 -0.024491857975630818 -0.025310253811017411 0.00046100018469175119 -0.023048779877220715 -0.044016786912517453 -0.042552325274041299 -0.026692211776507609 -0.0043548385943135903 -0.037215779570138295 -0.041166791850031401 0.035609336947874284 0.0091743524931371216 -0.033152656555175783 0.044999998807907109 0.039319458345628604 -0.004577137073201518 -0.036724083744976897 0.0063686266168951986 -0.01082133280565385 -0.032820175793861636 0.015968286967454632 0.0082242776447072116 0.034132951082518473 -0.02845235566936934 -0.00037669142087300622 -0.033363304596121718
leaf_weight=6977 146 84 161 81 148 3009 505 91 173 90 712 96 822 1133 30 46 35 180 49 12347 36 112 182 142 43 48 397 904 37 65 127 71 51 2271 58 52 288 163 485 41 4771 1917 321 31 450 153 107 40 30 925 176 31 83 40 342 122 122 58 104 729 30 41
leaf_count=6977 146 84 161 81 148 3009 505 91 173 90 712 96 822 1133 30 46 35 180 49 12347 36 112 182 142 43 48 397 904 37 65 127 71 51 2271 58 52 288 163 485 41 4771 1917 321 31 450 153 107 40 30 925 176 31 83 40 342 122 122 58 104 729 30 41
internal_value=-0.00925125 0.0379378 -0.0390254 -0.0201916 0.00768207 -0.0412212 -0.0374304 -0.0344714 -0.00267021 -0.00467432 0.0235454 0.0127732 -0.028633 -0.0368221 -0.0251195 -0.0214974 0.00835783 0.0042817 0.0152534 0.044362 0.0387749 -0.00960925 -0.00757709 -0.0225012 0.0115425 -0.0149039 -0.00124266 -0.0386999 -0.00451842 -0.0126552 0.0150548 -0.000846675 0.0210536 -0.03934 0.0306662 0.0204267 -0.0202073 -0.0409771 0.000308704 -0.00137151 -0.0436467 -0.0424845 -0.0397649 -0.00801761 -0.0328344 -0.0329876 0.0258188 0.00168063 -0.00896579 0.0430299 0.034434 0.0167094 -0.0254328 -0.0165074 -0.0133756 -0.0236085 0.0248293 -0.00348161 0.0248086 -0.0265663 -0.0202333 -0.0208735
internal_weight=43111 16678 26433 2760 2921 23673 9237 6228 1344 1642 1279 509 2616 1416 1794 1289 451 857 287 13757 1410 1191 1079 1259 416 487 570 3612 897 334 373 239 273 3491 770 283 369 2587 563 526 14436 7459 2688 168 771 316 222 118 70 1137 212 115 188 105 388 283 270 107 231 871 121 72
internal_count=43111 16678 26433 2760 2921 23673 9237 6228 1344 1642 1279 509 2616 1416 1794 1289 451 857 287 13757 1410 1191 1079 1259 416 487 570 3612 897 334 373 239 273 3491 770 283 369 2587 563 526 14436 7459 2688 168 771 316 222 118 70 1137 212 115 188 105 388 283 270 107 231 871 121 72
is_linear=0
shrinkage=0.05


Tree=5
num_leaves=63
num_cat=0
split_feature=27 27 27 29 29 26 27 29 21 26 26 21 13 28 28 21 5 26 21 26 21 5 8 21 27 29 8 13 28 22 11 28 11 21 13 28 4 5 28 13 13 28 5 11 21 13 26 28 21 28 5 6 26 21 5 26 6 6 29 27 28 21
split_gain=24003.9 1342.96 436.458 309.077 239.012 133.334 95.1005 71.5602 64.8176 56.5209 46.6781 96.8451 53.4641 46.6261 39.6771 30.1959 26.9597 26.9468 34.2721 26.2113 25.9098 23.8121 22.9169 21.3605 20.278 44.0277 18.8108 17.8017 16.5486 16.39 16.3565 16.2262 17.8074 16.0283 15.2525 14.4073 14.0597 14.0227 13.9394 13.5784 11.3353 11.0222 10.8802 10.7564 10.5371 10.3318 10.0553 13.189 12.9396 12.9784 10.0186 9.93735 10.764 21.2866 9.61498 9.53723 9.44041 9.39871 9.30029 14.3923 28.6462 11.3645
threshold=1550.0000000000002 1650.0000000000002 1450.0000000000002 1.0000000180025095e-35 1.0000000180025095e-35 3.5000000000000004 1350.0000000000002 1.0000000180025095e-35 27.500000000000004 3.5000000000000004 4.5000000000000009 46.500000000000007 1.0000000180025095e-35 8.5000000000000018 9.5000000000000018 42.500000000000007 0.12070929227868983 3.5000000000000004 37.500000000000007 3.5000000000000004 27.500000000000004 0.085637891520244466 0.074537037037037054 27.500000000000004 1750.0000000000002 1.0000000180025095e-35 0.1408730158730159 1.0000000180025095e-35 13.500000000000002 57.250000000000007 0.18368976983764754 9.5000000000000018 0.12219708396178985 86.500000000000014 150.00000000000003 8.5000000000000018 0.037037037037037056 0.097617697107203652 13.500000000000002 150.00000000000003 350.00000000000006 14.500000000000002 0.10696884747502666 0.1774468787845426 10.500000000000002 250.00000000000003 4.5000000000000009 9.5000000000000018 68.500000000000014 11.500000000000002 0.085637891520244466 0.13163309508338752 4.5000000000000009 77.500000000000014 0.075742865548690808 4.5000000000000009 0.087005046583850942 0.15927564732874469 1.0000000180025095e-35 1250.0000000000002 12.500000000000002 22.500000000000004
decision_type=2 2 2 10 10 2 2 10 10 2 2 10 10 2 2 8 8 2 10 2 10 8 8 10 2 10 10 10 2 10 10 2 8 10 10 2 10 8 2 8 8 2 10 8 8 8 2 2 10 2 8 10 2 10 10 2 10 10 10 2 2 10
left_child=2 4 6 23 5 40 58 -8 9 31 11 12 37 15 16 19 -6 20 -19 45 34 -10 -11 -4 25 35 55 -13 -14 36 44 -9 39 56 -15 -3 -29 -7 43 -33 -2 -16 -43 -35 -24 -5 47 -20 -48 -50 54 -17 -53 -54 -34 -18 -12 -37 -1 -60 -61 -62
right_child=1 24 3 13 14 10 7 8 21 22 33 27 28 17 41 51 26 18 46 -21 -22 -23 30 -25 -26 -27 -28 29 -30 -31 -32 32 50 38 -36 57 -38 -39 -40 -41 -42 42 -44 -45 -46 -47 48 -49 49 -51 -52 52 53 -55 -56 -57 -58 -59 59 60 61 -63
leaf_value=-0.044902027834480711 -0.037787806189226107 0.0036927839771153468 -0.023470802471955432 -0.034714284794671195 0.022182559220216655 0.0074822792751809298 -0.04347036538588895 -0.042483642304736363 -0.032391061262323856 0.014097688379971421 -0.0029491063517828784 -0.037295442385660425 0.032724040532639019 -0.012896449406715957 0.033430799748302931 -0.0056219472141604727 0.001309242515879519 0.026183735487042087 0.016283094461282923 0.028973922541453725 -0.030173903277942112 -0.039780724784110315 0.012069776256314734 -0.039199473647659973 0.044999998807907109 0.044999998807907109 -0.020648390097142776 -0.016999999549653793 -0.0052941175068126007 -0.03402562878493752 -0.029816553046305979 -0.027158139942629823 -0.030781060329933264 0.0044210163840594204 0.029490521114046982 0.036158716260126372 0.025601641307858858 -0.023430326319846914 0.029315650223621301 0.00029908898286521438 -0.018656803763719056 0.026162975142691655 -0.0058095913794305593 -0.02189044632588423 -0.013983389281732879 0.0042819086236484125 0.01675337300841491 -0.018874076254738189 -0.016808490550448731 0.011452011052857746 -0.040933320253830535 -0.034644188672794916 0.012869557027112356 -0.029643981805427023 -0.0036308085307096825 0.031441549799944228 0.020653109916503907 0.020786076132743355 -0.043639678292019597 -0.042250710338423592 -0.0146190393397696 -0.032462586508568453
leaf_weight=6964 256 62 265 35 290 59 2955 297 1756 68 48 182 181 44 627 73 85 202 36 63 98 2875 44 1164 12369 914 79 45 34 56 165 103 199 104 41 232 34 97 35 80 111 102 36 62 329 33 154 103 86 77 232 167 44 89 39 38 361 174 5569 1394 117 376
leaf_count=6964 256 62 265 35 290 59 2955 297 1756 68 48 182 181 44 627 73 85 202 36 63 98 2875 44 1164 12369 914 79 45 34 56 165 103 199 104 41 232 34 97 35 80 111 102 36 62 329 33 154 103 86 77 232 167 44 89 39 38 361 174 5569 1394 117 376
internal_value=-0.00912928 0.0378168 -0.0388503 -0.0200909 0.00703308 -0.00539203 -0.0410589 -0.0370694 -0.0340122 -0.0251832 0.00213163 -0.00679649 0.0105438 -0.00288787 0.0234911 -0.0149134 0.0124142 0.0043189 0.00903886 0.00573786 -0.0126523 -0.0369787 -0.0132517 -0.0362827 0.0443582 0.038614 -0.00160969 -0.0270907 0.0267119 -0.0133332 -0.0167085 -0.0327943 -0.0283873 0.0122014 0.00754903 0.0261422 0.00133488 -0.011739 0.000639929 -0.015155 -0.0320016 0.0306151 0.0178223 -0.00540616 -0.0109101 -0.0157897 0.00144398 -0.00976862 0.00636055 -0.00345844 -0.0335395 -0.0221663 -0.0261921 -0.0155794 -0.0263321 0.0106184 0.0178832 0.0295704 -0.0435881 -0.0423609 -0.0385871 -0.0282279
internal_weight=43009 16673 26336 2774 2922 1665 23562 9142 6187 1556 1298 688 371 1345 1257 504 492 841 658 131 183 4631 606 1429 13751 1382 202 317 215 135 538 950 653 610 85 468 79 156 201 183 367 765 138 166 373 68 456 139 317 163 470 373 300 133 238 123 409 406 14420 7456 1887 493
internal_count=43009 16673 26336 2774 2922 1665 23562 9142 6187 1556 1298 688 371 1345 1257 504 492 841 658 131 183 4631 606 1429 13751 1382 202 317 215 135 538 950 653 610 85 468 79 156 201 183 367 765 138 166 373 68 456 139 317 163 470 373 300 133 238 123 409 406 14420 7456 1887 493
is_linear=0
shrinkage=0.05


Tree=6
num_leaves=63
num_cat=0
split_feature=27 27 27 29 29 26 27 29 20 26 13 26 4 10 10 0 13 20 8 4 26 5 27 29 8 11 6 0 5 20 6 4 20 20 13 5 10 6 10 6 2 29 27 5 7 11 11 5 26 4 26 2 5 5 5 5 5 4 10 26 13 10
split_gain=23981.3 1344.8 437.471 307.294 238.144 132.781 96.1451 72.017 70.6862 46.3304 92.8259 38.7671 37.4586 30.9041 30.8064 27.6545 25.5756 24.8925 24.7398 22.4197 23.1921 21.9815 20.6833 44.9077 20.4853 20.4791 16.1936 15.9543 13.754 13.0059 12.2781 11.5405 16.3993 11.4819 11.4287 10.7769 10.7165 16.6024 12.1352 9.87842 9.41739 9.40479 14.4669 13.312 9.21131 8.8113 10.9204 8.66828 8.89579 8.40006 8.37612 8.01824 7.85784 7.99027 7.81741 7.81722 7.68884 9.51795 7.4325 7.2803 7.26154 7.17501
threshold=1550.0000000000002 1650.0000000000002 1450.0000000000002 1.0000000180025095e-35 1.0000000180025095e-35 3.5000000000000004 1350.0000000000002 1.0000000180025095e-35 4.5000000000000009 4.5000000000000009 1.0000000180025095e-35 3.5000000000000004 -0.17439791442522548 0.18877899997208189 0.26169734120453553 14.195183813417209 250.00000000000003 1.5000000000000002 0.13714733542319751 -0.39854881960145111 3.5000000000000004 0.097617697107203652 1750.0000000000002 1.0000000180025095e-35 0.074537037037037054 0.15157724788872332 0.12199255890863996 14.256687429901014 0.12123373535641725 10.500000000000002 0.23821860350357763 0.10062893081761004 9.5000000000000018 10.500000000000002 350.00000000000006 0.13878056798927754 0.21293288102241401 0.14895302963887111 0.22335677003577412 0.15927564732874469 0.012380069276277479 1.0000000180025095e-35 1250.0000000000002 0.088066608009906483 -0.12307692307692307 0.17502515090543261 0.12004366812227076 0.083435708435708453 3.5000000000000004 0.02705316535103771 4.5000000000000009 0.022307570319520655 0.085637891520244466 0.18019348743130134 0.10530333467255927 0.11501295336787566 0.091854763106656107 -0.12686567164179099 0.18636679731950945 4.5000000000000009 150.00000000000003 0.19183031703247341
decision_type=2 2 2 10 10 2 2 10 8 2 10 2 10 10 10 10 8 8 10 10 2 8 2 10 8 10 8 8 10 10 10 8 10 10 8 10 10 8 10 10 8 10 2 8 10 8 10 8 2 10 2 8 8 10 10 8 10 10 10 2 8 8
left_child=2 4 6 17 5 34 41 -8 13 10 21 16 -13 19 31 18 54 -4 47 20 40 51 23 29 -10 -14 -18 -21 -20 -3 35 32 -12 -28 -2 36 37 -27 -38 -31 -9 -1 -43 44 -44 46 -11 -6 49 -49 -41 -7 -26 -54 -5 -47 57 -29 -23 -30 -59 -55
right_child=1 22 3 11 15 9 7 8 24 45 14 12 25 -15 -16 -17 26 -19 28 27 -22 58 -24 -25 52 30 33 56 59 39 -32 -33 -34 -35 -36 -37 38 -39 -40 50 -42 42 43 -45 -46 55 -48 48 -50 -51 -52 -53 53 61 -56 -57 -58 60 -60 -61 -62 -63
leaf_value=-0.044900415900673146 -0.037765664901235146 0.031707443759926485 -0.022879779035000936 -0.019749393306280439 0.032427599013644649 -0.02467741870111035 -0.043446092591329449 -0.040174971641720958 -0.021634483876473765 0.0085104946768091577 0.017442189941280769 0.022895349917667254 0.011056815507333903 -0.035897000008435161 -0.036325004985255586 -0.023999999364217123 0.023653234338218518 -0.03946090468815297 0.022388017228197145 0.0010529182486883973 -0.0039189087155953812 -0.021207530900489453 0.044999998807907109 0.044999998807907109 -0.035325605245639317 0.026100098173178377 0.0034186099304093255 -0.032912187603205349 -0.015933382568945147 0.028390855596146805 -0.021133392784986799 0.027277174284894956 -0.015018251863392918 -0.033647579269913526 -0.018555956108176765 -0.014031933461633806 -0.032643455717908713 -0.0039172099245821726 -0.00049464895079533264 -0.0098950481713892743 -0.019896597123664359 -0.043627140406986759 -0.024625139419532302 -0.04251247011906617 -0.036841525799924245 0.015375062329694628 0.024749203418579068 0.02198000091056411 0.026164501426955918 -0.0089470850646887947 0.022311352046601701 0.0068225215542419204 -0.04191696414487972 -0.025781749485012814 -0.040087312570911776 -0.0049775190900444334 -0.034554820217155564 -0.025267891177630172 -0.039374986674888007 0.010702575969955197 -0.011229244784497825 -0.040828258340588272
leaf_weight=6964 256 317 282 95 498 31 2955 74 170 217 133 175 210 810 31 30 44 1147 92 46 236 86 12369 914 869 84 45 317 58 66 123 131 55 39 111 167 38 102 129 52 253 5569 199 1001 687 80 198 52 443 38 33 58 2190 156 94 115 407 376 163 46 122 161
leaf_count=6964 256 317 282 95 498 31 2955 74 170 217 133 175 210 810 31 30 44 1147 92 46 236 86 12369 914 869 84 45 317 58 66 123 131 55 39 111 167 38 102 129 52 253 5569 199 1001 687 80 198 52 443 38 33 58 2190 156 94 115 407 376 163 46 122 161
internal_value=-0.00911794 0.037806 -0.0388249 -0.0200437 0.00700118 -0.00540134 -0.0410361 -0.0370247 -0.0339578 0.00210669 -0.00678811 -0.00289041 0.00182341 -0.027765 0.0112601 0.0234293 -0.0181769 -0.0361888 0.024589 -0.0241676 -0.0158644 -0.0254771 0.0443518 0.0385505 -0.03857 -0.00249967 -0.000919342 -0.0278543 0.00830551 0.0259547 -0.00692714 0.0158844 0.00794578 -0.0137907 -0.0319556 -0.00356681 0.00138411 0.00963899 -0.00780995 0.0138777 -0.0244856 -0.0435792 -0.0423451 -0.0385615 -0.0340977 0.0121389 0.0162581 0.0276846 0.023253 0.0089219 0.00260861 -0.00414937 -0.0394228 -0.040843 -0.0298645 0.00337226 -0.0289424 -0.0261397 -0.0331003 -0.00415209 -0.0218287 -0.0334237
internal_weight=43009 16673 26336 2774 2922 1665 23562 9142 6187 1298 688 1345 1028 2641 350 1257 317 1429 1227 1831 563 338 13751 1382 3546 853 128 1268 196 468 643 319 188 84 367 520 353 186 167 151 327 14420 7456 1887 886 610 415 1031 533 90 85 89 3376 2507 189 195 1222 815 249 104 498 317
internal_count=43009 16673 26336 2774 2922 1665 23562 9142 6187 1298 688 1345 1028 2641 350 1257 317 1429 1227 1831 563 338 13751 1382 3546 853 128 1268 196 468 643 319 188 84 367 520 353 186 167 151 327 14420 7456 1887 886 610 415 1031 533 90 85 89 3376 2507 189 195 1222 815 249 104 498 317
is_linear=0
shrinkage=0.05


Tree=7
num_leaves=63
num_cat=0
split_feature=27 27 27 26 27 21 26 21 5 21 26 21 26 13 13 28 28 21 26 21 26 11 27 13 8 10 5 26 21 0 28 10 10 22 28 11 28 21 8 26 28 21 5 28 11 0 21 5 28 9 13 6 9 20 21 22 21 6 10 9 7 27
split_gain=23957.7 1347.02 438.619 139.87 97.2279 69.5654 158.659 65.5051 65.2573 63.519 45.4998 39.1002 36.2805 30.7763 29.8944 27.2234 26.1704 23.9221 23.6586 27.7617 23.6377 22.5455 21.0516 18.8206 18.1669 17.1952 16.6751 21.8367 16.0908 15.1414 14.5927 21.3023 14.1277 13.8472 13.5497 12.4181 12.3019 11.9986 18.2874 11.6496 10.8882 12.1919 10.5529 10.1058 21.7168 10.0195 9.26096 8.88139 8.84631 8.76622 11.7139 8.91733 8.66525 8.39715 8.10927 8.082 7.96291 7.74575 7.71047 7.61648 7.61193 15.1906
threshold=1550.0000000000002 1650.0000000000002 1450.0000000000002 3.5000000000000004 1350.0000000000002 48.500000000000007 4.5000000000000009 37.500000000000007 0.085637891520244466 38.500000000000007 3.5000000000000004 24.500000000000004 3.5000000000000004 -249.99999999999997 350.00000000000006 14.500000000000002 13.500000000000002 80.500000000000014 8.5000000000000018 63.500000000000007 3.5000000000000004 0.15628877171215885 1750.0000000000002 250.00000000000003 0.084523809523809543 0.18988311008587438 0.10871675812579149 4.5000000000000009 28.500000000000004 13.806210000151873 9.5000000000000018 0.23961925287356325 0.21435728600057261 57.750000000000007 9.5000000000000018 0.13800317414514504 9.5000000000000018 28.500000000000004 0.074537037037037054 5.5000000000000009 8.5000000000000018 45.500000000000007 0.10814376381658705 11.500000000000002 0.24350078846587073 14.353395717935365 83.500000000000014 0.11649850048289535 15.500000000000002 0.029999999999999954 150.00000000000003 0.21351240636704122 -0.38499999999999995 6.5000000000000009 26.500000000000004 49.750000000000007 77.500000000000014 0.076739050423260971 0.20733024284886478 -0.86499999999999988 -0.18846153846153843 1250.0000000000002
decision_type=2 2 2 2 2 10 2 10 8 10 2 10 2 10 10 2 2 10 2 10 2 10 2 10 8 10 8 2 8 8 2 10 10 8 2 10 2 8 8 2 2 10 8 2 10 8 10 8 2 10 8 8 10 8 8 10 10 10 10 10 8 2
left_child=2 3 4 9 60 13 30 10 11 14 23 20 -9 26 21 32 49 57 19 34 36 54 -3 58 59 45 -5 -28 -25 -10 -7 33 -15 -32 40 -34 -6 38 -31 -19 41 -14 -23 56 -45 -13 -20 -35 -38 51 -51 -12 -17 -39 -2 -18 -21 -8 -4 -22 61 -1
right_child=1 22 7 5 8 6 17 12 29 -11 16 25 18 15 -16 52 55 39 46 43 24 42 -24 28 -26 -27 27 -29 -30 37 31 -33 35 47 -36 -37 48 53 -40 -41 -42 -43 -44 44 -46 -47 -48 -49 -50 50 -52 -53 -54 -55 -56 -57 -58 -59 -60 -61 -62 -63
leaf_value=-0.043201313406660495 -0.0015429460274224932 0.038493339789069499 -0.023081199617170898 0.018669299302938206 -0.040895542622990694 -0.028408769795061212 5.2112961808840436e-05 -0.042146776059139385 -0.0048763454953829454 -0.031893167701223697 0.016878316664230935 -0.011363878395212324 0.0048983922717556107 0.035591078880166667 0.026818329873092378 0.013829559319549137 -0.0079277782981830927 -0.0046537323117256165 0.026351982075721026 -0.025406053119815444 -0.011633048951625825 0.021285107737140999 0.044999998807907109 0.012967045330366151 -0.019132620906345099 -0.0406883795358155 -0.018881282608869468 0.027499999271498789 -0.020526839313150823 0.0040877373949173958 0.027973380105363002 -0.032383650331430029 -0.010161290053398379 0.0092930844356847366 -0.021771114630980439 0.025399326211062528 -0.022533257183651938 -0.038500879549137751 -0.035561562118695142 0.014339161750256992 0.0084973795143397229 -0.022540344800366915 -0.012027420351902645 -0.028996652087397119 0.010374767482280731 -0.032712203818154345 -0.011687791942676995 -0.020479686359564465 -0.043448274711082729 -0.019803401997737721 0.01159892014918789 -0.0093691468630966394 -0.020524677970717033 -0.042727973524741891 -0.026782644016911158 -0.035002875753811433 -0.037291306563866193 0.026270303374874002 -0.04116156203993436 0.020749746133451877 -0.043934765827735645 -0.031107982511461619
leaf_weight=967 44 1382 183 183 173 226 30 274 30 277 218 57 59 488 81 45 63 125 32 217 30 70 12369 61 332 870 86 36 87 31 36 71 31 43 445 118 394 1829 470 228 76 129 36 158 45 1537 32 60 58 57 62 38 31 3285 115 49 402 462 87 46 13098 355
leaf_count=967 44 1382 183 183 173 226 30 274 30 277 218 57 59 488 81 45 63 125 32 217 30 70 12369 61 332 870 86 36 87 31 36 71 31 43 445 118 394 1829 470 228 76 129 36 158 45 1537 32 60 58 57 62 38 31 3285 115 49 402 462 87 46 13098 355
internal_value=-0.00910601 0.0377948 -0.0387984 0.0069646 -0.0410124 0.0126593 0.00490578 -0.0199926 -0.0369785 -0.0140498 -0.0089509 -0.0316113 -0.0253391 0.0224158 0.000235149 0.0281019 0.00143572 0.0175456 -0.0224518 -0.0236968 -0.0234459 -0.00789028 0.0443461 -0.0210521 -0.0140846 -0.0350346 0.00912358 -0.005195 -0.00672193 -0.0403035 -0.0195912 -0.0101018 0.0314766 0.00127959 -0.0164472 0.0180008 -0.0295569 -0.0404927 -0.0331082 0.00761363 -0.0074731 -0.0139293 0.00997142 -0.0299499 -0.020269 -0.0319488 0.0073321 -0.00805028 -0.025217 0.00777009 -0.00344253 0.0129822 -0.000183353 -0.0412162 -0.0197981 -0.0197731 -0.0331247 0.0246716 -0.0289071 0.00796706 -0.0435698 -0.0399539
internal_weight=43009 16673 26336 2922 23562 2299 1281 2774 9142 623 905 3497 1869 1018 346 713 487 845 1595 1531 1033 265 13751 418 408 2464 305 122 148 5645 436 210 637 139 709 149 625 5615 501 353 264 188 106 822 203 1594 64 103 452 375 119 256 76 5114 159 112 619 492 270 76 14420 1322
internal_count=43009 16673 26336 2922 23562 2299 1281 2774 9142 623 905 3497 1869 1018 346 713 487 845 1595 1531 1033 265 13751 418 408 2464 305 122 148 5645 436 210 637 139 709 149 625 5615 501 353 264 188 106 822 203 1594 64 103 452 375 119 256 76 5114 159 112 619 492 270 76 14420 1322
is_linear=0
shrinkage=0.05


Tree=8
num_leaves=63
num_cat=0
split_feature=27 27 27 29 29 26 27 29 20 28 26 21 13 28 21 21 26 5 26 21 26 21 20 10 21 26 27 29 8 13 21 28 22 21 13 28 5 28 8 28 11 13 28 5 11 13 26 28 20 26 21 10 29 27 28 21 26 6 6 0 21 6
split_gain=23932.6 1347.5 440.12 306.953 237.083 131.598 98.2898 73.1315 71.516 46.2472 45.673 96.2015 53.1965 39.2444 31.1523 29.2301 29.1626 26.7134 26.638 33.5506 25.8863 25.7998 25.1094 23.7569 22.4622 22.2276 21.7813 47.2917 18.591 17.7943 17.5507 16.4589 16.2455 15.918 14.9654 14.5889 13.9334 13.7319 12.8629 12.8091 17.5087 11.6094 11.0652 10.7833 10.5634 10.276 10.1447 13.0072 12.7922 10.0437 27.9186 10.9573 9.63524 14.6946 29.4547 11.4678 9.56487 9.51218 9.47639 9.44363 9.35062 9.25283
threshold=1550.0000000000002 1650.0000000000002 1450.0000000000002 1.0000000180025095e-35 1.0000000180025095e-35 3.5000000000000004 1350.0000000000002 1.0000000180025095e-35 4.5000000000000009 8.5000000000000018 4.5000000000000009 46.500000000000007 1.0000000180025095e-35 9.5000000000000018 37.500000000000007 42.500000000000007 3.5000000000000004 0.12070929227868983 3.5000000000000004 37.500000000000007 3.5000000000000004 27.500000000000004 1.5000000000000002 0.18988311008587438 25.500000000000004 3.5000000000000004 1750.0000000000002 1.0000000180025095e-35 0.1408730158730159 1.0000000180025095e-35 11.500000000000002 13.500000000000002 57.250000000000007 86.500000000000014 150.00000000000003 8.5000000000000018 0.097617697107203652 13.500000000000002 0.087595907928388769 9.5000000000000018 0.12425869389760327 350.00000000000006 14.500000000000002 0.10696884747502666 0.1774468787845426 250.00000000000003 4.5000000000000009 9.5000000000000018 17.500000000000004 4.5000000000000009 77.500000000000014 0.18754042690815009 1.0000000180025095e-35 1250.0000000000002 12.500000000000002 22.500000000000004 4.5000000000000009 0.15927564732874469 0.16283474277660329 14.444903627897036 39.500000000000007 0.087005046583850942
decision_type=2 2 2 10 10 2 2 10 8 2 2 10 10 2 10 8 2 8 2 10 2 10 8 10 8 2 2 10 10 10 10 2 10 10 10 2 8 2 8 2 8 8 2 10 8 8 2 2 10 2 10 10 10 2 2 10 2 10 8 8 10 10
left_child=2 4 6 22 5 41 52 -8 14 15 11 12 36 17 16 20 39 -6 21 -20 45 34 60 30 25 -10 27 35 56 -13 -18 -14 -31 61 -11 -3 -7 44 -27 -9 -41 -2 -15 -44 -35 -5 47 -21 -48 51 -51 58 -1 -54 -55 -56 -19 -37 -17 -16 -4 -12
right_child=1 26 3 9 13 10 7 8 24 18 33 29 31 42 59 49 23 28 19 46 -22 -23 -24 -25 -26 38 -28 -29 -30 32 -32 -33 -34 37 -36 57 -38 -39 -40 40 -42 -43 43 -45 -46 -47 48 -49 -50 50 -52 -53 53 54 55 -57 -58 -59 -60 -61 -62 -63
leaf_value=-0.04489722681466634 -0.037719682289753115 0.0028652403759019032 -0.016468433554109652 -0.034714284794671195 0.022045485406857114 0.007430492407815942 -0.043403606197706945 -0.040110134127594177 -0.039039188457859891 -0.012578941678458994 -0.0029549537536998592 -0.037214372945683347 0.032620906862764726 0.033244425973645526 -0.0078224658089525567 0.0036269135411000917 0.0029533036384571552 0.0011959395075545592 0.026044735284798809 0.016175936700569261 0.028644329758124455 -0.029969603880023472 -0.03935521647533842 -0.033331360875460125 -0.039407008355422511 0.010224290467509681 0.044999998807907109 0.044999998807907109 -0.020564948588232452 0.0013461657528635821 -0.016483465495224267 -0.0052941175068126007 -0.033858193989310947 0.0042231681255193859 0.029407133707186076 0.035533388639832367 -0.023383556536792482 0.028946980386972427 -0.028508589723530937 -0.012006256819130427 -0.031351046181857738 -0.018358721788804811 0.025908966950487857 -0.0059209114354517728 -0.02185112740243635 0.0041763408504652258 0.010695811616800105 -0.018738073544594849 -0.017568669674244333 0.014515158279488486 -0.028166623235205718 -0.039538073915502299 -0.043602882934562645 -0.042212468522789232 -0.014322584620716736 -0.032247044944620516 0.031371875695492095 0.020068225699166456 -0.029253708840613919 -0.034570983381753816 -0.036000257619242707 0.020411606292934301
leaf_weight=6964 256 62 192 35 290 59 2955 210 90 44 48 182 181 627 34 36 163 85 202 36 63 98 1147 149 3364 58 12369 914 79 79 404 34 56 104 41 232 97 35 34 166 396 111 102 36 62 33 270 103 47 60 106 115 5569 1394 117 376 38 174 56 1119 90 361
leaf_count=6964 256 62 192 35 290 59 2955 210 90 44 48 182 181 627 34 36 163 85 202 36 63 98 1147 149 3364 58 12369 914 79 79 404 34 56 104 41 232 97 35 34 166 396 111 102 36 62 33 270 103 47 60 106 115 5569 1394 117 376 38 174 56 1119 90 361
internal_value=-0.0090939 0.0377824 -0.0387707 -0.0199328 0.00694671 -0.00542815 -0.0409886 -0.0369327 -0.0338421 -0.00278897 0.00204637 -0.0067851 0.0104975 0.0233382 -0.0276132 -0.0147656 -0.022833 0.0123218 0.00438845 0.00908129 0.00555276 -0.0124853 -0.0360689 -0.0155647 -0.0384814 -0.0213726 0.0443348 0.0383815 -0.00163785 -0.0270118 -0.0108958 0.026625 -0.0132571 0.0120071 0.00767317 0.0254557 -0.0117295 0.000485492 -0.00409003 -0.0295741 -0.0256371 -0.0318639 0.0304233 0.0176055 -0.00551542 -0.0158409 0.00156678 -0.0096956 0.00650518 -0.0219015 -0.0127395 -0.0292489 -0.0435599 -0.0423108 -0.0384975 -0.0279932 0.0105186 0.0289055 -0.0163874 -0.0337822 -0.022702 0.0176693
internal_weight=43009 16673 26336 2774 2922 1665 23562 9142 6187 1345 1298 688 371 1257 2641 504 1488 492 841 658 131 183 1429 716 3546 182 13751 1382 202 317 567 215 135 610 85 468 156 201 92 772 562 367 765 138 166 68 456 139 317 373 166 207 14420 7456 1887 493 123 406 92 1153 282 409
internal_count=43009 16673 26336 2774 2922 1665 23562 9142 6187 1345 1298 688 371 1257 2641 504 1488 492 841 658 131 183 1429 716 3546 182 13751 1382 202 317 567 215 135 610 85 468 156 201 92 772 562 367 765 138 166 68 456 139 317 373 166 207 14420 7456 1887 493 123 406 92 1153 282 409
is_linear=0
shrinkage=0.05


Tree=9
num_leaves=63
num_cat=0
split_feature=27 27 27 29 29 26 27 29 20 28 26 21 13 28 21 26 21 5 26 21 21 26 20 10 21 27 29 26 13 21 28 22 21 13 28 4 5 28 28 11 4 13 5 28 5 11 9 26 6 13 26 21 10 29 27 28 21 6 6 21 6 28
split_gain=23910.4 1349.21 441.001 305.364 236.24 130.984 99.3463 73.5756 71.7105 45.8155 45.3436 95.8987 53.0479 39.0065 31.1738 29.274 28.7662 26.5631 26.3745 33.3697 25.7207 25.6665 25.2309 23.4875 22.3903 22.1952 48.1902 21.028 17.8563 17.3742 16.4142 16.1056 15.8311 14.8904 14.4045 14.0757 13.9002 13.5619 12.8175 17.4667 12.4553 11.6879 11.6515 11.0332 10.6813 10.4817 10.3269 12.0287 10.6224 10.2593 10.121 27.4449 10.9901 9.74316 14.7839 29.6771 11.4372 9.47963 9.35974 9.31977 9.18113 9.03806
threshold=1550.0000000000002 1650.0000000000002 1450.0000000000002 1.0000000180025095e-35 1.0000000180025095e-35 3.5000000000000004 1350.0000000000002 1.0000000180025095e-35 4.5000000000000009 8.5000000000000018 4.5000000000000009 46.500000000000007 1.0000000180025095e-35 9.5000000000000018 37.500000000000007 3.5000000000000004 42.500000000000007 0.12070929227868983 3.5000000000000004 37.500000000000007 27.500000000000004 3.5000000000000004 1.5000000000000002 0.18988311008587438 27.500000000000004 1750.0000000000002 1.0000000180025095e-35 3.5000000000000004 1.0000000180025095e-35 11.500000000000002 13.500000000000002 57.250000000000007 86.500000000000014 150.00000000000003 8.5000000000000018 0.037037037037037056 0.097617697107203652 13.500000000000002 9.5000000000000018 0.12425869389760327 0.15662650602409639 350.00000000000006 0.18858744845620037 14.500000000000002 0.10696884747502666 0.1774468787845426 -0.4549999999999999 5.5000000000000009 0.13560854507003403 250.00000000000003 4.5000000000000009 77.500000000000014 0.18754042690815009 1.0000000180025095e-35 1250.0000000000002 12.500000000000002 22.500000000000004 0.15927564732874469 0.16283474277660329 39.500000000000007 0.087005046583850942 11.500000000000002
decision_type=2 2 2 10 10 2 2 10 8 2 2 10 10 2 10 2 8 8 2 10 10 2 8 10 8 2 10 2 10 10 2 10 10 10 2 10 8 2 2 8 10 8 10 2 10 8 10 2 10 8 2 10 10 10 2 2 10 10 8 10 10 2
left_child=2 4 6 22 5 41 53 -8 14 16 11 12 36 17 15 38 21 -6 20 61 33 49 59 29 27 26 34 -10 -13 -17 -14 35 60 -11 -3 -30 -7 45 -9 -40 -29 -2 -19 -15 -45 -34 47 48 -21 -5 52 -52 58 -1 -55 -56 -57 -36 -18 -4 -12 -20
right_child=1 25 3 9 13 10 7 8 24 18 32 28 30 43 -16 23 50 42 19 46 -22 -23 -24 -25 -26 -27 -28 40 31 -31 -32 -33 37 -35 57 -37 -38 -39 39 -41 -42 -43 -44 44 -46 -47 -48 -49 -50 -51 51 -53 -54 54 55 56 -58 -59 -60 -61 -62 -63
leaf_value=-0.044895615053161475 -0.037685799950850196 0.0028236480970536514 -0.016360676135324562 -0.034714284794671195 0.021992272151441412 0.0074178983504741879 -0.043378620973446247 -0.040062383966786519 -0.039590825743295935 -0.012509445084089583 -0.0029518756705025836 -0.037193925482231181 0.03256935907002971 0.033159591714975775 -0.033721909062340794 0.0029348915682797052 0.0036067639620240596 -0.0070265034014093024 0.036006605147190812 -0.020576798998647269 -0.029893150803994163 0.028439727437401575 -0.039277392996693521 -0.033152400592229507 -0.039497021191642841 0.044999998807907109 0.044999998807907109 -0.020733829627142236 -0.016999999549653793 -0.016403904206829495 -0.0052941175068126007 -0.033707041319991859 0.0041927125878058946 0.029371271336950906 0.035315378410902258 0.025625875460750919 -0.023359449776177557 0.028740216365882327 -0.011970093415444156 -0.031291669186656226 0.012548568135216124 -0.018259485445178306 0.025068919097675998 0.025807363167405131 -0.0058715705552862749 -0.021780639810998356 -0.0042714371114734792 0.030015806517187965 0.012325285007427265 0.0041447017906290117 0.014430486503988505 -0.027887614263344629 -0.039469312060138456 -0.0435907470994931 -0.04219884183104157 -0.014273618473711178 -0.032174146056492277 0.019876697217381892 -0.029070873174350711 -0.035860256636515257 0.020323966430639464 0.014828131231479347
leaf_weight=6964 256 62 192 35 290 59 2955 210 110 44 48 182 181 627 1153 163 36 168 106 36 98 63 1147 149 3309 12369 914 85 45 404 34 56 104 41 232 34 97 35 166 396 42 111 34 102 36 62 286 57 77 33 60 106 115 5569 1394 117 376 174 56 90 361 96
leaf_count=6964 256 62 192 35 290 59 2955 210 110 44 48 182 181 627 1153 163 36 168 106 36 98 63 1147 149 3309 12369 914 85 45 404 34 56 104 41 232 34 97 35 166 396 42 111 34 102 36 62 286 57 77 33 60 106 115 5569 1394 117 376 174 56 90 361 96
internal_value=-0.0090826 0.037772 -0.0387457 -0.0198889 0.00691662 -0.00543623 -0.0409657 -0.0368881 -0.0337882 -0.00278948 0.00202084 -0.00677873 0.0104767 0.023279 -0.0275507 -0.0227689 -0.0147101 0.012296 0.00435438 0.00902394 -0.0124356 0.0054464 -0.0359831 -0.0154867 -0.0384337 0.0443285 0.0383189 -0.0235879 -0.0269735 -0.0108444 0.0265816 -0.0131949 0.0119456 0.00769184 0.0252709 0.00134531 -0.0117193 0.000455473 -0.0295228 -0.0255846 -0.00972705 -0.0318103 -0.0016243 0.0303425 0.0175433 -0.00550818 0.00152972 0.0112893 0.00184321 -0.0158562 -0.0217892 -0.0125919 -0.0291647 -0.0435508 -0.0422947 -0.0384699 -0.0279259 0.0286988 -0.016284 -0.0225839 0.0175923 0.0259416
internal_weight=43009 16673 26336 2774 2922 1665 23562 9142 6187 1345 1298 688 371 1257 2641 1488 504 492 841 658 183 131 1429 716 3546 13751 1382 237 317 567 215 135 610 85 468 79 156 201 772 562 127 367 202 765 138 166 456 170 113 68 373 166 207 14420 7456 1887 493 406 92 282 409 202
internal_count=43009 16673 26336 2774 2922 1665 23562 9142 6187 1345 1298 688 371 1257 2641 1488 504 492 841 658 183 131 1429 716 3546 13751 1382 237 317 567 215 135 610 85 468 79 156 201 772 562 127 367 202 765 138 166 456 170 113 68 373 166 207 14420 7456 1887 493 406 92 282 409 202
is_linear=0
shrinkage=0.05


Tree=10
num_leaves=63
num_cat=0
split_feature=27 27 27 29 29 26 27 29 20 22 26 13 28 28 5 27 29 20 13 10 0 11 28 22 6 5 26 4 4 26 5 11 28 28 8 10 11 28 28 10 2 20 10 2 11 2 29 27 28 13 5 20 20 5 10 8 5 2 13 4 10 28
split_gain=23921.4 1325.46 446.277 307.334 228.238 126.701 101.75 75.4462 75.9919 69.3913 72.2646 61.2456 44.8624 35.2116 26.1821 24.6903 50.5787 24.4361 22.1736 21.0076 20.8545 20.8341 20.6238 19.4792 19.4424 18.7333 16.8953 15.8326 13.9653 13.7745 12.8948 12.562 12.4234 12.1469 11.9696 11.6591 11.624 13.3122 11.1823 11.025 10.8949 11.3193 10.4629 10.3814 9.58829 9.42629 9.41503 12.892 25.4259 8.90214 8.87894 9.10204 8.80851 8.76332 9.17477 8.5382 8.39801 8.30299 8.27213 8.23314 8.20962 8.0646
threshold=1550.0000000000002 1650.0000000000002 1450.0000000000002 1.0000000180025095e-35 1.0000000180025095e-35 4.5000000000000009 1350.0000000000002 1.0000000180025095e-35 2.5000000000000004 57.250000000000007 3.5000000000000004 1.0000000180025095e-35 8.5000000000000018 9.5000000000000018 0.1160525919228451 1750.0000000000002 1.0000000180025095e-35 1.5000000000000002 150.00000000000003 0.24976722532588455 13.62056258224538 0.14738938980918434 8.5000000000000018 57.250000000000007 0.16649341649341651 0.085637891520244466 3.5000000000000004 -0.13576827057898153 -0.39854881960145111 3.5000000000000004 0.097617697107203652 0.18306715291750505 9.5000000000000018 9.5000000000000018 0.12973352033660593 0.26679197994987475 0.18024167091929724 12.500000000000002 14.500000000000002 0.17623735946234534 0.010857776101103458 12.500000000000002 0.18520836230473278 0.0068135544885398591 0.15495556364014348 -0.013613213415582385 1.0000000180025095e-35 1250.0000000000002 12.500000000000002 1.0000000180025095e-35 0.1835800917832168 6.5000000000000009 6.5000000000000009 0.090969940367530741 0.22858690605169482 0.086335403726708088 0.072806234423241467 -0.019855372017188656 250.00000000000003 -0.39854881960145111 0.19183031703247341 15.500000000000002
decision_type=2 2 2 10 10 2 2 10 8 10 2 10 2 2 8 2 10 8 10 8 8 8 2 10 10 8 2 10 10 2 8 8 2 2 10 10 8 2 2 10 8 10 10 8 8 10 10 2 2 8 10 8 10 10 8 10 10 10 10 10 10 2
left_child=2 4 6 17 5 9 46 -8 21 10 32 30 24 14 52 16 22 -4 26 40 -10 28 -3 -20 31 42 59 -28 29 33 -12 -5 -2 -9 -16 61 -7 -38 -15 -32 -13 -42 56 -40 -29 49 -1 -48 -49 -11 51 -27 -6 54 -50 -54 -22 -30 -34 -14 -52 -24
right_child=1 15 3 12 13 36 7 8 20 45 11 19 18 38 34 -17 -18 -19 23 -21 25 -23 35 -25 -26 50 27 44 57 -31 39 -33 58 -35 -36 -37 37 -39 43 -41 41 -43 -44 -45 -46 -47 47 48 53 -51 60 -53 55 -55 -56 -57 -58 -59 -60 -61 -62 -63
leaf_value=-0.044882136205014113 -0.040992701338960769 -0.0008629846809939906 -0.02252983845811447 0.011362189481733368 0.031037514803833086 0.01787359913418152 -0.04339283347350878 -0.042692306561347766 0.0030675321584567429 -0.036818180842833087 0.0021560183252956047 0.043765014835766392 8.8993347052371867e-06 0.032749526058264741 0.0093671327689662572 0.044999998807907109 0.044999998807907109 -0.039212921915269518 0.026164188218870385 -0.012577871647146015 -0.032009082829049552 -0.028975771385349632 0.034668798759282075 -0.0012706718742124085 -0.022670902882511369 -0.036081306838815046 0.020194132563353766 0.01178763088512611 -0.01901106216434029 0.004477394174213882 -0.0031320863786865683 -0.014386492408812047 -0.024198698812723161 -0.010730047345161439 -0.014752011954091315 0.0050735473467244047 -0.005638474227464575 0.027129983284124515 -0.003721742881905465 -0.037602738729894981 0.028913253764895831 -0.0033707106838355193 -0.038381531864822821 0.026178738270747539 -0.0066115364347964214 -0.037661417367053224 -0.043528871734363789 -0.04214902456594527 -0.01978739445193077 -0.010687075518071652 -0.025279189233596511 -0.042413657828034496 0.031813624304134487 -0.037816583524074632 -0.043219022929668428 0.004777121232761132 -0.020481136398470531 -0.035464141578287693 0.0030023245347870725 -0.030737307443632747 -0.040927542664972297 0.01256409915203744
leaf_weight=7019 94 66 272 90 152 429 2966 39 32 55 61 77 33 632 128 12339 912 1137 174 36 657 1104 338 103 297 804 101 94 248 111 34 100 125 125 86 45 127 41 42 73 102 37 490 94 287 256 5578 1379 254 80 195 1929 43 170 50 91 208 111 36 64 147 47
leaf_count=7019 94 66 272 90 152 429 2966 39 32 55 61 77 33 632 128 12339 912 1137 174 36 657 1104 338 103 297 804 101 94 248 111 34 100 125 125 86 45 127 41 42 73 102 37 490 94 287 256 5578 1379 254 80 195 1929 43 170 50 91 208 111 36 64 147 47
internal_value=-0.00909096 0.0377756 -0.0387345 -0.0196794 0.00724911 -0.00493432 -0.040955 -0.0368343 -0.0336967 -0.0152625 -0.00555334 0.0071942 -0.00256469 0.0232279 0.0129015 0.0442842 0.0380113 -0.0359923 0.00432819 0.0227839 -0.0371515 -0.0248273 0.0251611 0.0159628 -0.0146803 -0.037442 -0.00123793 0.00259364 -0.0176034 -0.0091246 -0.0161903 -0.00218975 -0.0265493 -0.0183308 -0.000325608 0.0291555 0.0135076 0.00235859 0.0299508 -0.0266494 0.0286775 0.0203197 -0.0325439 0.0169448 -0.00207211 -0.0320238 -0.0435689 -0.0423285 -0.0387152 -0.0213331 -0.0396004 -0.0405508 0.0227986 -0.0287253 -0.0236413 0.013453 -0.029237 -0.0240982 -0.0181165 -0.0202773 -0.0320052 0.0319703
internal_weight=43046 16678 26368 2752 2931 1663 23616 9166 6200 1066 675 420 1343 1268 500 13747 1408 1409 856 252 4462 1738 496 277 487 4430 579 482 634 275 168 190 255 164 214 430 597 168 768 107 216 139 1355 136 381 391 14450 7431 1853 135 3075 2733 286 474 304 134 865 359 161 97 342 385
internal_count=43046 16678 26368 2752 2931 1663 23616 9166 6200 1066 675 420 1343 1268 500 13747 1408 1409 856 252 4462 1738 496 277 487 4430 579 482 634 275 168 190 255 164 214 430 597 168 768 107 216 139 1355 136 381 391 14450 7431 1853 135 3075 2733 286 474 304 134 865 359 161 97 342 385
is_linear=0
shrinkage=0.05


Tree=11
num_leaves=63
num_cat=0
split_feature=27 27 27 29 29 26 27 29 20 21 26 21 26 26 13 21 26 21 21 26 27 29 13 26 22 20 21 21 28 26 28 28 21 21 8 9 21 13 10 5 2 22 11 13 13 2 10 28 21 0 11 11 28 11 29 27 28 10 26 26 5 10
split_gain=23898.3 1327.28 447.569 306.08 227.42 125.655 102.871 75.936 76.2661 69.3875 54.6894 46.0942 55.9081 43.4215 41.8375 37.2245 66.915 34.5773 28.7211 29.9255 25.085 51.3873 24.7505 26.4101 25.1372 24.509 23.8907 22.3251 21.8338 20.4569 20.3557 19.3609 18.2734 17.7477 16.3991 14.7636 14.1676 13.9549 17.3311 13.7699 13.2821 13.1365 12.7734 12.0787 11.8194 11.7937 11.5413 11.5138 10.9011 10.8432 10.4343 10.3354 10.0649 9.5587 9.53269 12.9946 25.614 9.34362 9.18561 8.92851 8.76269 9.15742
threshold=1550.0000000000002 1650.0000000000002 1450.0000000000002 1.0000000180025095e-35 1.0000000180025095e-35 4.5000000000000009 1350.0000000000002 1.0000000180025095e-35 2.5000000000000004 38.500000000000007 3.5000000000000004 42.500000000000007 3.5000000000000004 4.5000000000000009 1.0000000180025095e-35 38.500000000000007 4.5000000000000009 70.500000000000014 25.500000000000004 3.5000000000000004 1750.0000000000002 1.0000000180025095e-35 1.0000000180025095e-35 3.5000000000000004 57.250000000000007 1.5000000000000002 26.500000000000004 27.500000000000004 11.500000000000002 3.5000000000000004 8.5000000000000018 8.5000000000000018 67.500000000000014 87.500000000000014 0.072299651567944254 -0.435 66.500000000000014 150.00000000000003 0.20859555379642458 0.086250656397689487 -0.031130206468552329 57.750000000000007 0.18172105672105673 150.00000000000003 350.00000000000006 0.013224186604265392 0.26679197994987475 13.500000000000002 39.500000000000007 14.444903627897036 0.14275210084033615 0.16210036141228804 10.500000000000002 0.18608319272247087 1.0000000180025095e-35 1250.0000000000002 12.500000000000002 0.18520836230473278 3.5000000000000004 3.5000000000000004 0.090969940367530741 0.22858690605169482
decision_type=2 2 2 10 10 2 2 10 8 10 2 10 2 2 10 10 2 10 10 2 2 10 10 2 8 8 10 8 2 2 2 2 10 10 8 10 10 10 10 8 10 10 10 10 8 8 10 2 10 8 8 8 2 10 10 2 2 10 2 2 10 8
left_child=2 4 6 25 5 9 54 -8 18 10 -2 12 26 51 35 -6 32 -15 19 45 21 30 -11 -24 -25 48 43 29 -19 -10 -3 36 44 -7 -31 -12 -18 38 -14 57 -26 -16 -35 -5 58 -9 -32 -36 59 -20 52 -13 -47 -21 -1 -56 -57 -29 -17 -4 61 -58
right_child=1 20 3 11 15 33 7 8 27 22 14 13 37 17 41 16 31 28 49 53 -22 -23 23 24 40 -27 -28 39 -30 34 46 -33 -34 42 47 -37 -38 -39 -40 -41 -42 -43 -44 -45 -46 50 -48 -49 -50 -51 -52 -53 -54 -55 55 56 60 -59 -60 -61 -62 -63
leaf_value=-0.044881177048539486 -0.021439834307555274 -0.00085121664698376812 -0.02738644468433717 -0.011875980970312339 0.034071354086757141 0.01922141511872447 -0.043367939112100073 -0.041727355430866114 -0.036836879377420244 -0.036403591111795794 0.0078334049566795953 -0.0092268692421508432 0.021483551966143655 0.016917715831820307 0.03766942390846828 -0.01949102703262778 0.03765344540278117 -0.020076539384957293 -0.003376427806344711 0.0011106225869898657 0.044999998807907109 0.044999998807907109 -0.036109636491591782 0.024003041915173801 -0.0037576653232628647 -0.039130142912360381 -0.027139813164332966 -0.030390607352520978 0.011514811174323162 0.01926910048632911 0.031772039413161868 0.035118144400527372 -0.025697102580677002 0.0080092032486242613 -0.027951234511028118 -0.028826119810483365 -0.004093893097033576 0.033538479698555813 -0.013238999049644918 -0.04001602450268911 -0.034265902067224185 0.0026470587534063003 -0.022586758120192424 0.01856105291949851 0.021355537829988794 -0.028677371144294739 0.0050115373233954111 0.0072092646112044655 -0.036896145133836065 -0.031328108572799204 -0.028009851072637138 -0.029904388375736835 -0.0013644500014682612 -0.019737082521120709 -0.0435167760468015 -0.042130475785675109 -0.019723117373531732 -0.039365089556844729 0.0048586918237786859 -0.0052941282571415706 -0.037748151151052511 -0.043132584869861601
leaf_weight=7019 184 66 85 61 484 411 2966 87 173 302 57 81 143 174 126 51 30 202 36 206 12339 912 109 53 88 1137 111 782 75 33 385 340 57 141 104 53 63 140 48 2879 60 34 45 70 82 52 45 30 88 958 228 238 96 75 5578 1379 254 461 161 99 170 50
leaf_count=7019 184 66 85 61 484 411 2966 87 173 302 57 81 143 174 126 51 30 202 36 206 12339 912 109 53 88 1137 111 782 75 33 385 340 57 141 104 53 63 140 48 2879 60 34 45 70 82 52 45 30 88 958 228 238 96 75 5578 1379 254 461 161 99 170 50
internal_value=-0.00907854 0.0377655 -0.0387078 -0.0196251 0.00721793 -0.00494364 -0.0409315 -0.0367881 -0.0336404 -0.015229 -0.000418199 -0.00254535 0.00819264 -0.0105361 0.0139077 0.023168 0.0164368 -0.000550261 -0.024755 -0.0173256 0.0442785 0.0379557 -0.0262162 -0.0162917 -0.00554461 -0.0359048 -0.0100731 -0.0371014 -0.0115229 -0.0247869 0.0250032 0.0295886 0.00021261 0.0134219 -0.012304 -0.00982982 0.00937299 0.021547 0.0127575 -0.0381172 -0.0161259 0.0302272 0.000606955 0.00438808 0.00523592 -0.0251377 0.0289715 -0.0200795 -0.0224222 -0.0303158 -0.0212991 -0.024654 -0.0109609 -0.00445371 -0.0435598 -0.0423117 -0.038684 -0.033719 -0.000999024 -0.0154998 -0.0286571 -0.0235734
internal_weight=43046 16678 26368 2752 2931 1663 23616 9166 6200 1066 454 1343 573 770 270 1268 784 451 1738 744 13747 1408 612 310 201 1409 242 4462 277 340 496 433 351 597 167 110 93 331 191 4122 148 160 186 131 294 463 430 134 272 994 376 319 148 281 14450 7431 1853 1243 212 184 474 304
internal_count=43046 16678 26368 2752 2931 1663 23616 9166 6200 1066 454 1343 573 770 270 1268 784 451 1738 744 13747 1408 612 310 201 1409 242 4462 277 340 496 433 351 597 167 110 93 331 191 4122 148 160 186 131 294 463 430 134 272 994 376 319 148 281 14450 7431 1853 1243 212 184 474 304
is_linear=0
shrinkage=0.05


Tree=12
num_leaves=63
num_cat=0
split_feature=27 27 27 29 29 26 27 29 20 21 26 21 26 26 13 21 21 26 21 26 27 29 13 26 22 20 21 10 28 28 28 21 21 21 21 8 9 21 13 10 2 2 22 11 11 13 13 0 10 21 11 29 27 28 26 26 28 5 10 5 5 28
split_gain=23875.4 1329.02 448.535 304.774 226.652 124.735 104.014 76.4178 76.6258 69.3765 54.3748 45.7406 55.4208 43.1248 41.7907 37.95 36.9312 66.5924 33.9559 30.1926 25.5067 52.2511 24.8324 26.3984 24.9873 24.4815 23.6859 22.7959 21.3878 20.0749 19.2551 18.2224 18.1902 17.6038 17.5147 16.5059 14.7196 14.1118 13.8559 17.1441 13.5326 13.1407 13.1141 12.6735 12.6453 11.987 11.7474 11.54 11.4129 10.7919 10.2919 9.65428 13.1056 25.806 9.08799 8.93921 8.93757 8.74832 9.13854 8.40248 8.39893 8.11702
threshold=1550.0000000000002 1650.0000000000002 1450.0000000000002 1.0000000180025095e-35 1.0000000180025095e-35 4.5000000000000009 1350.0000000000002 1.0000000180025095e-35 4.5000000000000009 38.500000000000007 3.5000000000000004 42.500000000000007 3.5000000000000004 4.5000000000000009 1.0000000180025095e-35 37.500000000000007 38.500000000000007 4.5000000000000009 70.500000000000014 3.5000000000000004 1750.0000000000002 1.0000000180025095e-35 1.0000000180025095e-35 3.5000000000000004 57.250000000000007 1.5000000000000002 26.500000000000004 0.18988311008587438 11.500000000000002 8.5000000000000018 8.5000000000000018 15.500000000000002 67.500000000000014 87.500000000000014 27.500000000000004 0.074537037037037054 -0.435 66.500000000000014 150.00000000000003 0.20859555379642458 0.031341472020323211 -0.031130206468552329 57.750000000000007 0.18172105672105673 0.12425869389760327 150.00000000000003 350.00000000000006 14.414148189595133 0.26679197994987475 39.500000000000007 0.16210036141228804 1.0000000180025095e-35 1250.0000000000002 12.500000000000002 3.5000000000000004 3.5000000000000004 10.500000000000002 0.090969940367530741 0.22858690605169482 0.085637891520244466 0.085637891520244466 15.500000000000002
decision_type=2 2 2 10 10 2 2 10 8 10 2 10 2 2 10 10 10 2 10 2 2 10 10 2 8 8 10 10 2 2 2 10 10 10 8 8 10 10 10 10 8 10 10 10 8 10 8 8 10 10 8 10 2 2 2 2 2 10 8 8 8 2
left_child=2 4 6 25 5 9 51 -8 15 10 -2 12 26 50 36 19 -6 32 -15 40 21 29 -11 -24 -25 49 45 31 -20 -3 37 -21 46 -7 35 -10 -12 -19 39 -14 -9 -26 -16 -35 56 -5 54 -17 61 55 -13 -1 -53 -54 -18 -4 -42 58 -55 -36 -46 -31
right_child=1 20 3 11 16 33 7 8 34 22 14 13 38 18 42 47 17 30 28 27 -22 -23 23 24 41 -27 -28 -29 -30 48 -32 -33 -34 43 59 -37 -38 -39 -40 -41 44 -43 -44 -45 60 -47 -48 -49 -50 -51 -52 52 53 57 -56 -57 -58 -59 -60 -61 -62 -63
leaf_value=-0.044880217912339267 -0.021352443669963143 -0.0008396091616966507 -0.027354225349776884 -0.01182730896551101 0.033971137081126541 0.019120885899693792 -0.043341906398358311 -0.040155086639322768 0.0033609418996742796 -0.036391536940802015 0.0078059193335081409 -0.0091699132655551768 0.021378387734814958 0.0167670120110457 0.037639527543196605 -0.0032698259751001999 -0.019376373963028777 0.037590689659118659 -0.01988273120328489 0.0018089428775782037 0.044999998807907109 0.044999998807907109 -0.036059944331645964 0.023957753181457521 -0.0037491251629861917 -0.039046652493187499 -0.027017561781538968 -0.031424764524419585 0.011384309990331531 0.034268851735374785 0.035040677919545592 -0.016769606291761982 -0.02562947866033044 0.0079552405183566793 -0.03498599961521745 -0.031325676503347208 -0.028798925356482558 -0.0040743983572437649 0.033406721396105635 -0.013156255351592941 -0.027098299562931062 -0.034094572545339666 0.0026470587534063003 -0.022520807633797327 -0.024417386178031148 0.018493953405746392 0.02130345116687439 -0.034691653744934055 0.0049502852062384287 -0.036749399104155603 -0.029803869385123569 -0.043504616681986595 -0.042110617333608449 -0.019660997318881237 0.0048436027598677215 -0.0052486736270965957 -0.0040898202133237147 -0.037670434357269723 -0.043046319752931599 -0.04072540482491277 -0.039846147991278592 0.012092438086550287
leaf_weight=7019 184 66 85 61 484 411 2966 193 42 302 57 81 143 174 126 30 51 30 202 213 12339 912 109 53 88 1137 111 154 75 338 340 347 57 141 857 187 53 63 140 48 72 60 34 45 251 70 82 1124 45 88 238 5578 1379 254 161 99 102 170 50 2492 136 47
leaf_count=7019 184 66 85 61 484 411 2966 193 42 302 57 81 143 174 126 30 51 30 202 213 12339 912 109 53 88 1137 111 154 75 338 340 347 57 141 857 187 53 63 140 48 72 60 34 45 251 70 82 1124 45 88 238 5578 1379 254 161 99 102 170 50 2492 136 47
internal_value=-0.0090664 0.0377552 -0.0386815 -0.0195782 0.00718771 -0.00495331 -0.0409076 -0.0367412 -0.0335836 -0.015201 -0.000391354 -0.00253492 0.0081618 -0.010495 0.0138932 -0.0270903 0.0231108 0.0164062 -0.0005433 -0.0217569 0.0442725 0.0378967 -0.0261873 -0.0162464 -0.00550167 -0.0358231 -0.0100241 -0.0143882 -0.0114169 0.0248358 0.0295262 -0.00970312 0.000221161 0.013345 -0.0383419 -0.0249639 -0.00983096 0.00936595 0.0214579 0.0126995 -0.0287348 -0.0160513 0.0302036 0.000582003 -0.0248058 0.00437489 0.00523302 -0.0338748 0.0287767 -0.0223481 -0.0245645 -0.0435504 -0.0422944 -0.0386512 -0.000982901 -0.0154605 -0.0136106 -0.0285869 -0.0235073 -0.0392567 -0.0298394 0.0315616
internal_weight=43046 16678 26368 2752 2931 1663 23616 9166 6200 1066 454 1343 573 770 270 2622 1268 784 451 1468 13747 1408 612 310 201 1409 242 714 277 496 433 560 351 597 3578 229 110 93 331 191 754 148 160 186 561 131 294 1154 430 272 319 14450 7431 1853 212 184 174 474 304 3349 387 385
internal_count=43046 16678 26368 2752 2931 1663 23616 9166 6200 1066 454 1343 573 770 270 2622 1268 784 451 1468 13747 1408 612 310 201 1409 242 714 277 496 433 560 351 597 3578 229 110 93 331 191 754 148 160 186 561 131 294 1154 430 272 319 14450 7431 1853 212 184 174 474 304 3349 387 385
is_linear=0
shrinkage=0.05


Tree=13
num_leaves=63
num_cat=0
split_feature=27 27 27 29 29 26 27 29 20 22 26 13 28 28 10 27 29 5 20 4 26 13 10 28 22 6 0 26 4 5 9 28 11 5 8 28 10 11 28 2 2 20 2 29 27 28 8 11 2 28 11 13 28 20 5 10 10 8 13 13 4 26
split_gain=23852.7 1330.83 449.543 303.353 225.924 123.777 105.144 76.8746 76.8885 68.6679 71.5993 60.9827 44.2124 35.0409 29.3776 25.9054 53.0679 25.8606 24.4484 23.94 27.5964 21.7415 20.9108 19.8123 19.4347 19.2029 17.1461 16.4377 15.4477 14.4139 14.0675 12.5533 12.5073 11.8689 11.7001 11.3709 11.3487 11.2377 13.0615 11.0153 10.9061 11.4808 10.4754 9.77794 13.2154 25.998 9.30749 9.24946 9.21388 9.08531 12.5308 8.96644 8.96434 8.81206 8.73393 9.11966 8.47639 8.27797 8.2182 8.08609 8.04755 7.68616
threshold=1550.0000000000002 1650.0000000000002 1450.0000000000002 1.0000000180025095e-35 1.0000000180025095e-35 4.5000000000000009 1350.0000000000002 1.0000000180025095e-35 4.5000000000000009 57.250000000000007 3.5000000000000004 1.0000000180025095e-35 8.5000000000000018 9.5000000000000018 0.18988311008587438 1750.0000000000002 1.0000000180025095e-35 0.1160525919228451 1.5000000000000002 -0.39854881960145111 3.5000000000000004 150.00000000000003 0.24976722532588455 8.5000000000000018 57.250000000000007 0.16649341649341651 14.444903627897036 3.5000000000000004 -0.13576827057898153 0.085637891520244466 -0.65499999999999992 9.5000000000000018 0.18306715291750505 0.1835800917832168 0.12973352033660593 14.500000000000002 0.25017780938833573 0.18024167091929724 12.500000000000002 0.0051568781274792365 0.010857776101103458 12.500000000000002 0.0068135544885398591 1.0000000180025095e-35 1250.0000000000002 12.500000000000002 0.072299651567944254 0.15495556364014348 -0.013613213415582385 9.5000000000000018 0.12219708396178985 1.0000000180025095e-35 15.500000000000002 6.5000000000000009 0.090969940367530741 0.22858690605169482 0.19183031703247341 0.086335403726708088 250.00000000000003 150.00000000000003 -0.39854881960145111 4.5000000000000009
decision_type=2 2 2 10 10 2 2 10 8 10 2 10 2 2 10 2 10 8 8 10 2 10 8 2 10 10 8 2 10 8 10 2 8 10 10 2 10 8 2 8 8 10 8 10 2 2 8 8 10 2 8 8 2 10 10 8 10 10 10 8 10 2
left_child=2 4 6 18 5 9 43 -8 14 10 31 30 25 17 19 16 23 53 -4 20 39 27 40 -3 -23 32 -21 60 -29 46 -12 -2 -5 -31 61 -15 52 -7 -39 -9 -13 -42 -37 -1 -45 -46 -10 -30 51 -41 59 -11 -25 -6 55 -47 -35 -55 -33 -51 -14 -19
right_child=1 15 3 12 13 37 7 8 29 48 11 22 21 35 -16 -17 -18 34 -20 26 -22 24 -24 36 -26 -27 -28 28 47 33 -32 58 -34 56 -36 42 -38 38 -40 49 41 -43 -44 44 45 54 -48 -49 -50 50 -52 -53 -54 57 -56 -57 -58 -59 -60 -61 -62 -63
leaf_value=-0.044879258796625764 -0.040932508637296396 -0.00082816001818035586 -0.022271561372669085 0.011381291709064196 0.030829664231523085 0.01755589854041666 -0.043315261663882838 -0.043548385943135912 -0.012853332153624959 -0.036818180842833087 0.0037651072545298219 0.043705452649624318 8.0700534762758201e-05 0.032583088860139726 -0.035141724530283525 0.044999998807907109 0.044999998807907109 0.0010796224719352937 -0.038958852181478147 0.00047732324181300287 -0.0022828763665117846 0.026026171274568844 -0.012549976259469986 0.034837473876451377 -0.0013772741746772262 -0.022495734287027634 -0.028571389552482993 0.019968717954684013 0.011587473649056034 -0.041467194198157406 -0.02666637054898522 -0.023999373167753218 -0.014311277035623791 -0.024365323494644243 -0.01465576855509087 -0.004114243636528651 0.0086156112071234994 -0.0056205298150266252 0.026837896301252086 -0.035177790373563771 0.028902760396401092 -0.0036106958179860506 0.025921315047889949 -0.04349220992772556 -0.042090768237382808 -0.019599072912370598 -0.034228567870635565 -0.0064836789091289662 -0.03742057378549362 -0.017309571840824226 -0.026347580373287202 -0.010592875052243472 0.011245616849349894 0.031320267179331111 -0.03759287758566001 -0.042960227072238927 -0.040649390874577945 0.0046989629638719034 0.0031128522008657456 0.013341524770172933 -0.030317001877119765 0.027699284140880295
leaf_weight=7019 94 66 272 90 152 429 2966 62 54 55 58 77 33 632 782 12339 912 89 1137 53 243 174 36 323 103 297 1223 101 94 2302 110 125 100 188 86 42 61 127 41 72 102 37 94 5578 1379 254 895 287 256 39 100 80 46 43 170 50 139 91 36 48 64 39
leaf_count=7019 94 66 272 90 152 429 2966 62 54 55 58 77 33 632 782 12339 912 89 1137 53 243 174 36 323 103 297 1223 101 94 2302 110 125 100 188 86 42 61 127 41 72 102 37 94 5578 1379 254 895 287 256 39 100 80 46 43 170 50 139 91 36 48 64 39
internal_value=-0.00905423 0.037745 -0.0386552 -0.0195305 0.00715669 -0.00496482 -0.0408838 -0.0366949 -0.0335278 -0.0151731 -0.00551472 0.007174 -0.00252698 0.0230542 -0.0270234 0.0442668 0.0378414 0.0127529 -0.0357375 -0.0235731 -0.0149946 0.00431579 0.0227302 0.0246788 0.0158364 -0.0145545 -0.0273648 -0.00119582 0.0025835 -0.0382943 -0.0161603 -0.0264138 -0.00214111 -0.040201 -0.000392699 0.0297608 0.0285938 0.013263 0.00230087 -0.0246176 0.0286102 0.0202481 0.0166456 -0.043541 -0.0422769 -0.0386185 -0.0330123 -0.00202518 -0.0318468 -0.0200859 -0.0142751 -0.0212773 0.0318965 0.0225891 -0.0285168 -0.0234414 -0.0312873 0.0132416 -0.017937 -0.000398622 -0.0199755 0.0091903
internal_weight=43046 16678 26368 2752 2931 1663 23616 9166 6200 1066 675 420 1343 1268 2622 13747 1408 500 1409 1840 564 856 252 496 277 487 1276 579 482 3578 168 255 190 2629 214 768 430 597 168 321 216 139 136 14450 7431 1853 949 381 391 259 187 135 369 286 474 304 327 134 161 87 97 128
internal_count=43046 16678 26368 2752 2931 1663 23616 9166 6200 1066 675 420 1343 1268 2622 13747 1408 500 1409 1840 564 856 252 496 277 487 1276 579 482 3578 168 255 190 2629 214 768 430 597 168 321 216 139 136 14450 7431 1853 949 381 391 259 187 135 369 286 474 304 327 134 161 87 97 128
is_linear=0
shrinkage=0.05


Tree=14
num_leaves=63
num_cat=0
split_feature=27 27 27 29 29 26 27 29 20 21 26 21 26 26 13 21 21 26 21 26 27 29 13 26 22 20 21 10 28 28 28 21 21 21 21 8 9 21 13 10 2 22 2 13 13 0 28 28 10 21 10 6 29 27 28 26 26 28 26 5 10 5
split_gain=23829.2 1332.69 450.887 301.881 225.225 122.683 106.338 77.3844 77.2132 69.4646 53.763 45.2749 54.6833 42.947 41.7355 38.109 36.6676 66.2743 33.2549 30.5197 26.2839 53.8432 24.9838 26.3649 24.6892 24.5019 23.3866 22.1523 20.9131 19.5658 19.1358 18.0408 17.9004 17.5937 17.4285 16.4379 14.6465 14.0543 13.7335 16.9248 13.5809 13.0939 12.8583 11.8424 11.6863 11.4975 11.3432 13.8435 11.2654 10.7206 10.3421 10.1247 9.90267 13.325 26.1902 9.06579 9.03158 8.91036 8.89978 8.71951 9.10078 8.52425
threshold=1550.0000000000002 1650.0000000000002 1450.0000000000002 1.0000000180025095e-35 1.0000000180025095e-35 4.5000000000000009 1350.0000000000002 1.0000000180025095e-35 4.5000000000000009 38.500000000000007 3.5000000000000004 42.500000000000007 3.5000000000000004 4.5000000000000009 1.0000000180025095e-35 37.500000000000007 38.500000000000007 4.5000000000000009 70.500000000000014 3.5000000000000004 1750.0000000000002 1.0000000180025095e-35 1.0000000180025095e-35 3.5000000000000004 57.250000000000007 1.5000000000000002 26.500000000000004 0.18988311008587438 11.500000000000002 8.5000000000000018 8.5000000000000018 67.500000000000014 15.500000000000002 27.500000000000004 87.500000000000014 0.074537037037037054 -0.435 66.500000000000014 150.00000000000003 0.20859555379642458 0.031341472020323211 57.750000000000007 -0.031130206468552329 150.00000000000003 350.00000000000006 14.414148189595133 15.500000000000002 9.5000000000000018 0.25017780938833573 39.500000000000007 0.20671733992264721 0.15097027361178308 1.0000000180025095e-35 1250.0000000000002 12.500000000000002 3.5000000000000004 3.5000000000000004 15.500000000000002 6.5000000000000009 0.090969940367530741 0.22858690605169482 0.085637891520244466
decision_type=2 2 2 10 10 2 2 10 8 10 2 10 2 2 10 10 10 2 10 2 2 10 10 2 8 8 10 10 2 2 2 10 10 8 10 8 10 10 10 10 8 10 10 10 8 8 2 2 10 10 8 10 10 2 2 2 2 2 2 10 8 8
left_child=2 4 6 25 5 9 52 -8 15 10 -2 12 26 51 36 19 -6 31 -15 40 21 29 -11 -24 -25 49 43 32 -20 -3 37 44 -21 35 -7 -10 -12 -19 39 -14 -9 -16 -26 -5 56 -17 47 -42 57 55 -49 -13 -1 -54 -55 -4 -18 -31 -36 60 -56 -35
right_child=1 20 3 11 16 34 7 8 33 22 14 13 38 18 41 45 17 30 28 27 -22 -23 23 24 42 -27 -28 -29 -30 48 -32 -33 -34 61 58 -37 -38 -39 -40 -41 46 -43 -44 -45 -46 -47 -48 50 -50 -51 -52 -53 53 54 59 -57 -58 -59 -60 -61 -62 -63
leaf_value=-0.044878299701452039 -0.021164081286153068 -0.00081686693610567038 -0.027273903646889853 -0.011730657542338138 0.033819872554591741 0.018916887123763129 -0.043288974589790676 -0.04006265838837994 0.0034289073908612844 -0.036368876350241781 0.0077672577479429407 -0.0089459104666816478 0.021241164702427137 0.016630514922562515 0.037612520536733057 -0.0032011525829633079 -0.019373424088253696 0.037475838063595196 -0.019632292905877723 0.0018304597350283409 0.044999998807907109 0.044999998807907109 -0.035963369878607064 0.023858658491440542 -0.003741825625977733 -0.038866580494314192 -0.026820019793671532 -0.030992299210667224 0.011285818628345927 0.034644101632019399 0.034903717870440554 -0.025572861763730383 -0.016583246365189552 -0.034860971306158332 -0.0066162096834137237 -0.031186155269649581 -0.028746599605623282 -0.00410428714184534 0.033233501400266374 -0.013071935631645224 -0.035422175932437815 0.0026470587534063003 -0.033759353213633096 0.018407119044235778 0.021191230007424591 -0.03456504764882825 -0.044675549841116352 -0.012529435505469642 0.0085167435432982729 -0.036514656643637199 -0.03342013323307038 -0.029582460432235776 -0.04347973457320873 -0.042070928497876137 -0.019537343555606726 -0.005012388820901062 0.0047712764430860553 0.011123381846624873 0.017349987526170233 -0.037515480485470855 -0.042874306619167329 -0.04064181676257049
leaf_weight=7019 184 66 85 61 484 411 2966 193 42 302 57 79 143 174 126 30 51 30 202 213 12339 912 109 53 88 1137 111 154 75 323 340 57 347 857 131 187 53 63 140 48 141 34 60 70 82 1124 63 282 61 88 75 240 5578 1379 254 99 161 46 55 170 50 2492
leaf_count=7019 184 66 85 61 484 411 2966 193 42 302 57 79 143 174 126 30 51 30 202 213 12339 912 109 53 88 1137 111 154 75 323 340 57 347 857 131 187 53 63 140 48 141 34 60 70 82 1124 63 282 61 88 75 240 5578 1379 254 99 161 46 55 170 50 2492
internal_value=-0.00904101 0.0377352 -0.0386274 -0.019474 0.00712546 -0.00497728 -0.0408593 -0.0366467 -0.0334691 -0.0151403 -0.000321254 -0.00251189 0.00813024 -0.0104313 0.0138827 -0.026951 0.0229984 0.0163178 -0.000500171 -0.0216065 0.0442615 0.0377893 -0.0261336 -0.0161624 -0.00542454 -0.0356417 -0.00993427 -0.0141979 -0.011261 0.0245309 0.0294064 0.000171392 -0.00957946 -0.0382457 0.0131698 -0.0248375 -0.00982578 0.00930866 0.0213375 0.012618 -0.028622 0.0301824 -0.0159111 0.0043735 0.00516262 -0.0337497 -0.0246861 -0.0221573 0.0284215 -0.022161 -0.0169182 -0.0244718 -0.0435315 -0.0422594 -0.0385859 -0.0152962 -0.00103712 0.031712 0.000470569 -0.0284469 -0.0233757 -0.0391625
internal_weight=43046 16678 26368 2752 2931 1663 23616 9166 6200 1066 454 1343 573 770 270 2622 1268 784 451 1468 13747 1408 612 310 201 1409 242 714 277 496 433 351 560 3578 597 229 110 93 331 191 754 160 148 131 294 1154 561 498 430 272 357 319 14450 7431 1853 184 212 369 186 474 304 3349
internal_count=43046 16678 26368 2752 2931 1663 23616 9166 6200 1066 454 1343 573 770 270 2622 1268 784 451 1468 13747 1408 612 310 201 1409 242 714 277 496 433 351 560 3578 597 229 110 93 331 191 754 160 148 131 294 1154 561 498 430 272 357 319 14450 7431 1853 184 212 369 186 474 304 3349
is_linear=0
shrinkage=0.05


Tree=15
num_leaves=63
num_cat=0
split_feature=27 27 27 29 29 26 27 29 20 21 26 13 26 26 21 28 21 20 5 10 21 26 21 27 29 21 21 26 9 8 26 22 28 26 9 21 28 20 21 26 28 6 13 10 29 28 27 5 8 28 21 26 21 5 21 0 5 10 11 26 26 16
split_gain=23833.9 1378.66 446.728 299.027 228.11 110.992 103.03 78.5786 82.6988 50.451 63.4808 40.4649 81.2274 40.0041 38.6389 36.559 33.5092 28.9493 28.6719 27.8514 26.9611 26.0412 25.2529 21.7459 48.9147 20.8187 19.1972 20.4244 18.7196 17.7653 17.5204 22.4852 17.4105 17.2003 18.0741 16.4472 16.4166 13.641 12.1772 16.2873 12.0057 12.0013 11.4683 14.7976 10.9717 16.5017 27.3369 11.1999 10.9226 10.0243 9.86827 9.81103 9.393 9.12796 9.10737 9.01647 8.95974 8.85097 8.75771 8.58366 8.31899 7.93186
threshold=1550.0000000000002 1650.0000000000002 1450.0000000000002 1.0000000180025095e-35 1.0000000180025095e-35 3.5000000000000004 1350.0000000000002 1.0000000180025095e-35 4.5000000000000009 42.500000000000007 3.5000000000000004 1.0000000180025095e-35 4.5000000000000009 4.5000000000000009 45.500000000000007 9.5000000000000018 37.500000000000007 1.5000000000000002 0.10530333467255927 0.18828984211142699 70.500000000000014 3.5000000000000004 39.500000000000007 1750.0000000000002 1.0000000180025095e-35 27.500000000000004 27.500000000000004 3.5000000000000004 -0.435 0.11651583710407241 4.5000000000000009 57.250000000000007 11.500000000000002 4.5000000000000009 -0.12000000000000002 10.500000000000002 13.500000000000002 2.5000000000000004 29.500000000000004 4.5000000000000009 9.5000000000000018 0.12457329931378376 150.00000000000003 0.21293288102241401 1.0000000180025095e-35 11.500000000000002 1250.0000000000002 0.090969940367530741 0.084523809523809543 14.500000000000002 39.500000000000007 3.5000000000000004 38.500000000000007 0.09305605667989636 87.500000000000014 14.359147623781462 0.085637891520244466 0.22858690605169482 0.1808777932214263 3.5000000000000004 5.5000000000000009 0.12132352941176472
decision_type=2 2 2 10 10 2 2 10 8 10 2 10 2 2 10 2 10 10 8 10 10 2 8 2 8 10 8 2 10 10 2 8 2 2 10 10 2 10 10 2 2 10 10 10 10 2 2 8 8 2 10 2 10 8 10 8 8 8 10 2 2 8
left_child=2 4 6 17 5 37 44 -8 16 10 25 12 22 59 36 18 19 50 -6 21 -15 40 28 24 33 41 27 -10 -7 51 31 -16 -22 34 -3 -23 -13 -2 -17 52 -9 -5 43 -12 -1 -46 -47 57 -29 53 -4 -20 -40 -42 -14 -18 -28 -48 -32 -11 -56 -26
right_child=1 23 3 9 15 11 7 8 26 13 42 14 54 20 30 38 55 -19 29 -21 32 35 -24 -25 61 -27 56 48 -30 -31 58 -33 -34 -35 -36 -37 -38 -39 39 -41 49 -43 -44 -45 45 46 47 -49 -50 -51 -52 -53 -54 -55 60 -57 -58 -59 -60 -61 -62 -63
leaf_value=-0.044870880016631101 -0.017311062357004952 0.021047593187540771 -0.014600195959808035 0.022065223753452302 0.024636339733507408 0.02197674360386161 -0.043329104237582315 -0.036943114686895304 -0.038900440769602168 -0.040846152764100301 0.022411581714948017 0.031820043198543022 0.01510693856826714 0.013787843072708 0.02171266634722014 0.041346212607320576 -0.0061904818813006092 -0.039195051658985749 -0.0050546863781554367 -0.033099567400358416 -0.018560390843351076 0.003993958195050557 -0.032775005159607851 0.044999998807907109 0.022213662500408564 -0.027089213950713294 -0.035016179686220728 0.0056151796459105981 -0.025243901770289352 -0.014270969965894307 0.015343972133529005 -0.023005639796312424 0.010476481070930976 0.030971594839482697 -0.017897097758796752 -0.015368333161698984 -0.0072580643238559853 -0.037238837813742681 0.028355453653378535 0.03386163385019611 -0.012166145314000735 -0.009211040419957987 0.033748784098479388 -0.010564194268293003 -0.043873106367861257 -0.042201027708944842 -0.023217407488476883 -0.038415479769882487 -0.024480132531607524 -0.038925807485504754 -0.034675930288958025 0.02099255012969176 0.009474037675026024 -0.031598310687659698 -0.021188880777672718 -0.03397026233549906 -0.040950939777475104 -0.042171994157849925 -0.0089217067075272397 -0.020442184564997874 0.0078698247631213501 0.043869306751255402
leaf_weight=6944 136 76 187 49 243 43 2992 162 129 65 150 202 242 177 37 168 30 1122 56 404 205 150 249 12407 44 109 856 57 41 112 165 117 69 148 49 408 31 233 111 313 238 82 139 44 4767 1902 394 312 64 63 91 102 162 81 38 1108 2474 73 48 249 70 1084
leaf_count=6944 136 76 187 49 243 43 2992 162 129 65 150 202 242 177 37 168 30 1122 56 404 205 150 249 12407 44 109 856 57 41 112 165 117 69 148 49 408 31 233 111 313 238 82 139 44 4767 1902 394 312 64 63 91 102 162 81 38 1108 2474 73 48 249 70 1084
internal_value=-0.00894483 0.0377333 -0.0385806 -0.0194624 0.00651288 -0.00572789 -0.0407979 -0.0366702 -0.0334691 -0.00256016 0.00865822 0.00122251 -0.00710013 -0.010963 0.0106965 0.0224732 -0.0267626 -0.0356161 0.0121763 -0.0218695 -0.00142252 -0.0177525 -0.0247777 0.0443332 0.0384284 -0.0109451 -0.0384221 -0.0250593 -0.00107143 0.00096233 0.000586437 -0.0122616 -0.0112482 0.0194376 0.00578127 -0.0101634 0.0266208 -0.0298942 0.0294789 0.0260767 -0.025537 0.00248771 0.0227868 0.0149325 -0.0434411 -0.0421081 -0.0389699 -0.0310807 -0.010303 -0.0206998 -0.0211717 0.0117606 0.0171511 -0.0171003 0.00971883 -0.0332379 -0.0394254 -0.0261803 0.00987565 -0.0246659 -0.00235453 0.0430246
internal_weight=43073 16727 26346 2738 2919 1652 23608 9216 6224 1338 573 1283 683 765 600 1267 2644 1400 513 1506 451 1102 333 13808 1401 240 3580 250 84 270 367 154 274 273 125 558 233 369 754 586 544 131 333 194 14392 7448 2681 779 121 382 278 158 273 319 350 1138 3330 467 213 314 108 1128
internal_count=43073 16727 26346 2738 2919 1652 23608 9216 6224 1338 573 1283 683 765 600 1267 2644 1400 513 1506 451 1102 333 13808 1401 240 3580 250 84 270 367 154 274 273 125 558 233 369 754 586 544 131 333 194 14392 7448 2681 779 121 382 278 158 273 319 350 1138 3330 467 213 314 108 1128
is_linear=0
shrinkage=0.05


Tree=16
num_leaves=63
num_cat=0
split_feature=27 27 27 29 29 26 27 29 20 21 26 13 26 26 21 28 21 20 5 26 21 21 10 27 29 21 21 26 9 8 26 22 26 9 28 28 21 20 21 26 6 28 11 13 10 29 28 27 5 8 21 26 21 26 5 21 10 14 26 11 26 28
split_gain=23811.8 1380.62 447.837 297.485 227.579 110.349 104.108 78.98 82.9472 49.9836 62.9452 40.3351 80.8315 39.7956 38.6262 36.4499 33.5439 29.0365 28.5028 27.916 26.4483 25.211 22.2181 22.0172 48.9547 20.6271 19.1588 20.4763 18.7196 17.6738 17.3788 22.3279 17.0959 17.5376 17.0101 16.3637 16.056 13.6909 12.1993 16.2119 11.8936 11.5388 14.8291 11.4598 14.6098 11.1009 16.6714 27.4982 11.1864 10.8253 9.83954 9.71958 9.37514 9.30685 9.02693 8.96959 8.87905 8.74066 8.67022 8.66733 8.22015 8.15132
threshold=1550.0000000000002 1650.0000000000002 1450.0000000000002 1.0000000180025095e-35 1.0000000180025095e-35 3.5000000000000004 1350.0000000000002 1.0000000180025095e-35 4.5000000000000009 42.500000000000007 3.5000000000000004 1.0000000180025095e-35 4.5000000000000009 4.5000000000000009 45.500000000000007 9.5000000000000018 37.500000000000007 1.5000000000000002 0.10530333467255927 3.5000000000000004 70.500000000000014 39.500000000000007 0.18988311008587438 1750.0000000000002 1.0000000180025095e-35 27.500000000000004 27.500000000000004 3.5000000000000004 -0.435 0.11651583710407241 4.5000000000000009 57.250000000000007 4.5000000000000009 -0.12000000000000002 11.500000000000002 13.500000000000002 10.500000000000002 2.5000000000000004 29.500000000000004 4.5000000000000009 0.12457329931378376 9.5000000000000018 0.133397807865893 150.00000000000003 0.21293288102241401 1.0000000180025095e-35 11.500000000000002 1250.0000000000002 0.090969940367530741 0.084523809523809543 39.500000000000007 3.5000000000000004 38.500000000000007 2.5000000000000004 0.085637891520244466 87.500000000000014 0.22858690605169482 inf 3.5000000000000004 0.1808777932214263 5.5000000000000009 11.500000000000002
decision_type=2 2 2 10 10 2 2 10 8 10 2 10 2 2 10 2 10 10 8 2 10 8 10 2 8 10 8 2 10 10 2 8 2 10 2 2 10 10 10 2 10 2 8 10 10 10 2 2 8 8 10 2 10 2 8 10 8 8 2 10 2 2
left_child=2 4 6 17 5 37 45 -8 16 10 25 12 21 58 35 18 19 50 -6 41 -15 28 36 24 32 40 27 -10 -7 51 31 -16 33 -3 -22 -13 -21 -2 -17 52 -5 -9 53 44 -12 -1 -47 -48 56 -29 -4 -20 -40 -43 -28 -14 -49 -38 -11 -32 -57 -44
right_child=1 23 3 9 15 11 7 8 26 13 43 14 55 20 30 38 -18 -19 29 22 34 -23 -24 -25 -26 -27 54 49 -30 -31 59 -33 -34 -35 -36 -37 57 -39 39 -41 -42 42 61 -45 -46 46 47 48 -50 -51 -52 -53 -54 -55 -56 60 -58 -59 -60 -61 -62 -63
leaf_value=-0.044869264562015822 -0.017234689986114115 0.020812192485716783 -0.014496069049587496 0.021952646088843442 0.024565370840790832 0.02197674360386161 -0.04330077059921824 -0.038036664700076592 -0.03888536308162896 -0.040846152764100301 0.022261628781755766 0.031757033195826088 0.015001542762947493 0.013663207158797531 0.021595300532676082 0.04129699093866207 -0.033177732928944118 -0.039108458234191457 -0.0050050421884017329 0.0038905610262558164 -0.018361206135326404 -0.032748679849637079 -0.031120508069878223 0.044999998807907109 0.042985592870345563 -0.026977377724107528 -0.034952619172214906 0.0055954772782953162 -0.025243901770289352 -0.014232744123520597 0.015227729929046649 -0.022966313923303134 0.030887887818185064 -0.017550113067335015 0.010339831277404142 -0.0072580643238559853 0.0033953465114940299 -0.037198881980815161 0.028302403096411678 0.033780495749679382 -0.0091829579777833893 0.011075771125880155 -0.019673450798040532 0.033639525450605286 -0.010504170469093053 -0.043864324353385241 -0.042176621222083155 -0.023158480061559707 -0.03835391650597255 -0.024365381940151566 -0.034542561338825543 0.020920516864634031 0.0094389486414046941 -0.018201125545116763 -0.040909589881362757 -0.021049480179422781 -0.04214310921626549 -0.018013550807831177 -0.020339563169355795 -0.0089124132568637535 0.0078360969426908671 -0.035418336133339577
leaf_weight=6944 136 76 187 49 243 43 2992 221 129 65 150 202 242 177 37 168 1138 1122 56 151 205 249 161 12407 1128 109 856 57 41 112 165 117 148 49 69 31 55 233 111 313 82 33 122 139 44 4767 1902 394 312 64 91 102 162 153 2474 38 73 358 249 48 70 252
leaf_count=6944 136 76 187 49 243 43 2992 221 129 65 150 202 242 177 37 168 1138 1122 56 151 205 249 161 12407 1128 109 856 57 41 112 165 117 148 49 69 31 55 233 111 313 82 33 122 139 44 4767 1902 394 312 64 91 102 162 153 2474 38 73 358 249 48 70 252
internal_value=-0.00893202 0.0377244 -0.0385541 -0.0194122 0.00648195 -0.00574455 -0.0407741 -0.0366248 -0.0334156 -0.00255356 0.00861274 0.00118571 -0.00712357 -0.0109173 0.0106444 0.0224237 -0.026699 -0.0355242 0.0121422 -0.0218034 -0.0014018 -0.024758 -0.014738 0.0443291 0.0383875 -0.0109077 -0.0383761 -0.0250266 -0.00107143 0.00096127 0.000536095 -0.01226 0.0193889 0.00577417 -0.0111336 0.0265662 -0.0100614 -0.0298408 0.0294189 0.0260136 0.00246318 -0.0283623 -0.0245444 0.0226815 0.0148302 -0.0434311 -0.0420903 -0.0389359 -0.0310235 -0.0102516 -0.0210581 0.0117317 0.0171087 -0.0130068 -0.0393783 0.00965434 -0.0261261 -0.0151625 -0.0245846 0.0097877 -0.00232735 -0.0302823
